tree
version=v4
num_class=3
num_tree_per_iteration=3
label_index=0
max_feature_idx=12
objective=multiclass num_class:3
feature_names=Column_0 Column_1 Column_2 Column_3 Column_4 Column_5 Column_6 Column_7 Column_8 Column_9 Column_10 Column_11 Column_12
feature_infos=[11.029999999999999:14.83] [0.73999999999999999:5.7999999999999998] [1.3600000000000001:3.23] [10.6:30] [70:162] [0.97999999999999998:3.8799999999999999] [0.34000000000000002:5.0800000000000001] [0.13:0.66000000000000003] [0.40999999999999998:3.5800000000000001] [1.28:13] [0.47999999999999998:1.71] [1.27:4] [278:1680]
tree_sizes=756 750 647 980 865 877 977 973 981 973 870 980 979 970 979 982 976 979 975 855 979 877 975 982 981 876 876 872 973 982

Tree=0
num_leaves=6
num_cat=0
split_feature=12 0 6 0 0
split_gain=87.1634 8.59013 0.493285 7.10543e-15 3.55271e-15
threshold=755.00000000000011 13.405000000000003 2.4200000000000004 13.920000000000002 13.350000000000001
decision_type=2 2 2 2 2
left_child=2 -2 4 -3 -1
right_child=1 3 -4 -5 -6
leaf_value=-1.2039659988371172 -1.0339204345177628 -0.90311615427210556 -1.173881014380616 -0.90311615427210568 -1.2039659988371172
leaf_weight=23.599813461303714 7.6450099945068386 7.9774017333984357 6.6478347778320304 6.6478347778320312 6.6478347778320304
leaf_count=71 23 24 20 20 20
internal_value=-1.10425 -0.948019 -1.19855 -0.903116 -1.20397
internal_weight=59.1657 22.2702 36.8955 14.6252 30.2476
internal_count=178 67 111 44 91
is_linear=0
shrinkage=1


Tree=1
num_leaves=6
num_cat=0
split_feature=9 0 12 12 0
split_gain=80.6069 6.21235 1.4233 0.98497 7.10543e-15
threshold=3.8200000000000003 12.800000000000002 622.50000000000011 622.50000000000011 13.825000000000001
decision_type=2 2 2 2 2
left_child=2 -2 -1 -3 -5
right_child=1 3 -4 4 -6
leaf_value=-0.75196752286041812 -0.9187912709505468 -0.98830116598810036 -0.8049274428890304 -1.0300071030106324 -1.0300071030106326
leaf_weight=15.465423554182054 7.1932202577590934 7.1932202577590934 7.5528812706470481 16.54440659284592 10.07050836086273
leaf_count=43 20 20 21 46 28
internal_value=-0.919104 -1.00318 -0.769345 -1.02113 -1.03001
internal_weight=64.0197 41.0014 23.0183 33.8081 26.6149
internal_count=178 114 64 94 74
is_linear=0
shrinkage=1


Tree=2
num_leaves=5
num_cat=0
split_feature=11 10 11 0
split_gain=85.11 5.04106 2.15262 3.55271e-15
threshold=2.0850000000000004 0.7350000000000001 2.5450000000000004 13.765000000000002
decision_type=2 2 2 2
left_child=1 -1 -2 -4
right_child=2 -3 3 -5
leaf_value=-1.0633603188433409 -1.3373875842479683 -1.181836813003577 -1.4018645878725866 -1.4018645878725866
leaf_weight=9.1579347252845746 6.2037622332572928 5.9083449840545645 22.74712818861008 8.5671002268791181
leaf_count=31 21 20 77 29
internal_value=-1.31058 -1.10982 -1.3912 -1.40186
internal_weight=52.5843 15.0663 37.518 31.3142
internal_count=178 51 127 106
is_linear=0
shrinkage=1


Tree=3
num_leaves=8
num_cat=0
split_feature=12 12 12 0 9 10 11
split_gain=69.3382 6.17721 0.482505 0.023317 0.00109109 0.00202939 0.000234412
threshold=755.00000000000011 1002.5000000000001 676.50000000000011 13.765000000000002 3.9150000000000005 0.68500000000000016 2.7750000000000004
decision_type=2 2 2 2 2 2 2
left_child=2 -2 4 -3 6 -6 -1
right_child=1 3 -4 -5 5 -7 -8
leaf_value=-0.094110720826935917 0.062529299551589174 0.17368555522538109 -0.064715260789072235 0.16587466836140305 -0.094507328194071899 -0.096981499008346739 -0.094908374289849828
leaf_weight=6.1948191821575191 8.3236464858055133 7.0886027812957755 6.3632007241249076 8.2930520474910718 6.2326461970806104 7.082269549369812 9.0910332500934583
leaf_count=20 24 20 20 23 20 22 29
internal_value=-0.000106072 0.131923 -0.0896206 0.169474 -0.0951616 -0.0958234 -0.0945851
internal_weight=58.6693 23.7053 34.964 15.3817 28.6008 13.3149 15.2859
internal_count=178 67 111 43 91 42 49
is_linear=0
shrinkage=0.1


Tree=4
num_leaves=7
num_cat=0
split_feature=9 0 4 12 9 12
split_gain=65.1336 9.58681 1.89157 0.0125019 0.00717615 0.00130697
threshold=3.4600000000000004 12.745000000000003 94.500000000000014 512.50000000000011 4.9600000000000009 832.50000000000011
decision_type=2 2 2 2 2 2
left_child=3 -2 -3 -1 -4 -6
right_child=1 2 4 -5 5 -7
leaf_value=0.14513745747135368 0.032518270561756116 -0.052135284296685083 -0.10762562361747047 0.15015539871550998 -0.10504458868248595 -0.10332161968952139
leaf_weight=11.919591546058657 7.5759798586368552 9.1147367060184461 7.3954259753227261 8.5098319947719556 6.9494332075119045 12.01340141892433
leaf_count=32 21 26 21 23 20 35
internal_value=0.00018515 -0.0695957 -0.0914042 0.147228 -0.104983 -0.103953
internal_weight=63.4784 43.049 35.473 20.4294 26.3583 18.9628
internal_count=178 123 102 55 76 55
is_linear=0
shrinkage=0.1


Tree=5
num_leaves=7
num_cat=0
split_feature=6 9 1 11 9 0
split_gain=68.5717 7.14832 0.53235 0.000989636 0.000495707 0.00068305
threshold=1.3750000000000002 5.2650000000000015 2.6300000000000003 2.7350000000000008 3.8200000000000003 13.570000000000002
decision_type=2 2 2 2 2 2
left_child=1 -1 3 -2 -5 -6
right_child=2 -3 -4 4 5 -7
leaf_value=0.069915307834084353 -0.089854373879164728 0.20299277538049926 -0.055303247581618413 -0.087817605801398121 -0.08960308084317814 -0.088192283413454656
leaf_weight=6.1077961623668697 6.2932094931602505 11.901925414800642 5.7121655344963065 8.2234421968460101 5.9953987598419181 8.0258752703666669
leaf_count=20 22 36 20 30 21 29
internal_value=-0.000105815 0.157861 -0.0831695 -0.0887472 -0.088434 -0.0887955
internal_weight=52.2598 18.0097 34.2501 28.5379 22.2447 14.0213
internal_count=178 56 122 102 80 50
is_linear=0
shrinkage=0.1


Tree=6
num_leaves=8
num_cat=0
split_feature=12 3 12 9 9 10 11
split_gain=56.2595 4.76054 0.481563 0.0871841 0.00376696 0.00380935 0.000151126
threshold=755.00000000000011 18.850000000000005 676.50000000000011 5.6200000000000001 3.6500000000000008 0.75500000000000012 2.8250000000000006
decision_type=2 2 2 2 2 2 2
left_child=2 3 4 -2 6 -6 -1
right_child=1 -3 -4 -5 5 -7 -8
leaf_value=-0.089815732373884558 0.15066380305464125 0.04793672189514267 -0.060208506146954013 0.13632817844379183 -0.090935989944884665 -0.094255008040518368 -0.09050225489247192
leaf_weight=5.7342545092105883 8.8680582046508842 7.4491025805473319 6.0585806369781485 8.1330285966396314 7.0241978764533979 6.8113004863262177 7.2739571630954742
leaf_count=20 24 21 20 22 24 22 25
internal_value=-0.00029508 0.114598 -0.0856738 0.143806 -0.0914213 -0.09257 -0.0901996
internal_weight=57.3525 24.4502 32.9023 17.0011 26.8437 13.8355 13.0082
internal_count=178 67 111 46 91 46 45
is_linear=0
shrinkage=0.1


Tree=7
num_leaves=8
num_cat=0
split_feature=9 4 6 0 9 12 3
split_gain=53.9599 4.89329 1.03497 0.686613 0.0167283 0.00354423 0.000782917
threshold=3.8200000000000003 89.500000000000014 2.2450000000000006 13.040000000000001 2.8250000000000006 755.00000000000011 17.300000000000001
decision_type=2 2 2 2 2 2 2
left_child=2 -2 4 -3 -1 -5 -7
right_child=1 3 -4 5 -6 6 -8
leaf_value=0.13004430033491915 -3.6801541194173137e-05 -0.063064842274958538 0.089392878825433744 -0.10073615343305085 0.13656974269567876 -0.098544371611282933 -0.097152515546463841
leaf_weight=7.864443778991701 7.3623230159282675 6.9421518146991756 8.1522030532360059 6.6858991086483028 7.8497859835624695 10.819123297929766 6.4510872662067404
leaf_count=21 21 20 22 20 21 33 20
internal_value=0.000306256 -0.0732998 0.118305 -0.0907566 0.133304 -0.0987813 -0.0980245
internal_weight=62.127 38.2606 23.8664 30.8983 15.7142 23.9561 17.2702
internal_count=178 114 64 93 42 73 53
is_linear=0
shrinkage=0.1


Tree=8
num_leaves=8
num_cat=0
split_feature=6 9 0 11 9 12 5
split_gain=56.1538 3.20813 1.65068 0.00328056 0.00130719 0.00186304 0.000133211
threshold=1.2650000000000003 6.2250000000000005 12.845000000000001 2.6400000000000001 3.8200000000000003 1002.5000000000001 2.4550000000000005
decision_type=2 2 2 2 2 2 2
left_child=2 3 -1 -2 6 -6 -5
right_child=1 -3 -4 4 5 -7 -8
leaf_value=0.11061511081352225 -0.088790020450247031 -0.0041963403982284301 0.17473248370964956 -0.085659727378684297 -0.088200208671439628 -0.085722441142621314 -0.084954456258815314
leaf_weight=6.6048275828361538 5.8200099170208004 5.6393074393272391 10.241002917289732 5.6848852634429949 5.5207682251930219 6.738567978143692 5.0634707659482956
leaf_count=20 21 20 29 22 20 26 20
internal_value=-4.09873e-05 -0.0731753 0.149594 -0.086669 -0.0861325 -0.0868383 -0.0853275
internal_weight=51.3128 34.467 16.8458 28.8277 23.0077 12.2593 10.7484
internal_count=178 129 49 109 88 46 42
is_linear=0
shrinkage=0.1


Tree=9
num_leaves=8
num_cat=0
split_feature=12 0 12 0 9 6 5
split_gain=46.815 4.26073 0.47214 0.00858433 0.00543864 0.00539745 0.000413473
threshold=755.00000000000011 13.405000000000003 676.50000000000011 13.875000000000002 3.6500000000000008 1.1500000000000001 2.2100000000000004
decision_type=2 2 2 2 2 2 2
left_child=2 -2 4 -3 6 -6 -1
right_child=1 3 -4 -5 5 -7 -8
leaf_value=-0.086300643451110493 0.043354991252528861 0.13398846833045483 -0.056689939680122536 0.12942216806292839 -0.08783915798030284 -0.091908528763024799 -0.087479076297230091
leaf_weight=6.5820963531732612 8.164960443973543 8.2305301725864428 5.7907877862453452 8.2373460531234723 6.829541474580763 6.235014408826828 5.4366616308689117
leaf_count=25 23 22 20 22 25 21 20
internal_value=-0.000396018 0.10242 -0.0824272 0.131704 -0.0883689 -0.0897813 -0.0868337
internal_weight=55.5069 24.6328 30.8741 16.4679 25.0833 13.0646 12.0188
internal_count=178 67 111 44 91 46 45
is_linear=0
shrinkage=0.1


Tree=10
num_leaves=7
num_cat=0
split_feature=9 0 4 12 9 12
split_gain=44.5491 7.49571 1.6481 0.0259011 0.0188403 0.00297248
threshold=3.4600000000000004 12.745000000000003 94.500000000000014 512.50000000000011 4.9600000000000009 832.50000000000011
decision_type=2 2 2 2 2 2
left_child=3 -2 -3 -1 -4 -6
right_child=1 2 4 -5 5 -7
leaf_value=0.11778861421277154 0.028770448838295982 -0.044445799933400185 -0.1000245871787538 0.12502346414458779 -0.095536010061322271 -0.09279203817366366
leaf_weight=11.784285157918932 7.5232312381267539 8.5649242699146253 6.8732598721981075 8.5302970111370069 6.2920962572097805 10.596167236566542
leaf_count=32 21 26 21 23 20 35
internal_value=0.000306777 -0.0611319 -0.0820545 0.120827 -0.0956107 -0.0938144
internal_weight=60.1643 39.8497 32.3264 20.3146 23.7615 16.8883
internal_count=178 123 102 55 76 55
is_linear=0
shrinkage=0.1


Tree=11
num_leaves=8
num_cat=0
split_feature=6 10 5 9 12 9 6
split_gain=47.3084 7.60098 0.164816 0.00365387 0.00516227 0.000213421 0.000173065
threshold=1.5750000000000004 0.80500000000000016 1.6150000000000004 3.8200000000000003 917.50000000000011 5.7250000000000005 2.0350000000000006
decision_type=2 2 2 2 2 2 2
left_child=1 2 -1 6 -5 -6 -2
right_child=3 -3 -4 4 5 -7 -8
leaf_value=0.16214377220377699 -0.08343576479793452 0.022445805118791136 0.14109565294326995 -0.087789672321820889 -0.083604195505494014 -0.084484582576058592 -0.08266179465905911
leaf_weight=7.5952710807323474 4.8062698096036929 6.5325100272893897 7.2919250130653381 5.4205098599195507 5.8071271032094938 5.2364794462919235 7.2428379654884338
leaf_count=21 20 21 20 20 24 21 31
internal_value=7.05894e-05 0.112374 0.151834 -0.0842938 -0.0852622 -0.0840216 -0.0829705
internal_weight=49.9329 21.4197 14.8872 28.5132 16.4641 11.0436 12.0491
internal_count=178 62 41 116 65 45 51
is_linear=0
shrinkage=0.1


Tree=12
num_leaves=8
num_cat=0
split_feature=12 12 12 0 9 11 5
split_gain=38.9337 3.51428 0.470616 0.021643 0.00723424 0.00622601 0.00032437
threshold=755.00000000000011 1002.5000000000001 676.50000000000011 13.765000000000002 3.6500000000000008 1.8250000000000004 2.2100000000000004
decision_type=2 2 2 2 2 2 2
left_child=2 -2 4 -3 6 -6 -1
right_child=1 3 -4 -5 5 -7 -8
leaf_value=-0.083353583057568681 0.040393857598675725 0.12403763399313608 -0.053200527715353219 0.11663801133481598 -0.085203992976236959 -0.089711943695071031 -0.084445441919210856
leaf_weight=5.9924088120460564 8.4891963005065936 7.4312311112880698 5.506260782480239 8.4443615674972516 6.3379848450422269 5.930500790476799 4.9837449491024017
leaf_count=25 24 20 20 23 25 21 20
internal_value=-0.000672878 0.0923298 -0.0794875 0.120102 -0.0857145 -0.0873831 -0.0838493
internal_weight=53.1157 24.3648 28.7509 15.8756 23.2446 12.2685 10.9762
internal_count=178 67 111 43 91 46 45
is_linear=0
shrinkage=0.1


Tree=13
num_leaves=8
num_cat=0
split_feature=9 1 6 8 3 9 12
split_gain=37.7044 4.46075 0.817444 0.420312 0.443872 0.0240221 0.0159691
threshold=3.8200000000000003 1.6450000000000002 2.2450000000000006 1.5650000000000002 17.050000000000004 2.8250000000000006 603.50000000000011
decision_type=2 2 2 2 2 2 2
left_child=2 -2 5 6 -5 -1 -3
right_child=1 3 -4 4 -6 -7 -8
leaf_value=0.10944753157846253 0.0054101188966684966 -0.097938632416329691 0.07368255837984139 -0.089762451390351439 -0.051471988946120775 0.11742184065257529 -0.091470879453149398
leaf_weight=7.4713827073574084 7.1106899678707114 6.7687308490276363 7.8382235169410697 5.7098284363746625 6.4443602561950684 7.6412137746810913 8.755295053124426
leaf_count=21 22 21 22 20 21 21 30
internal_value=0.000397868 -0.0652374 0.0998879 -0.0833871 -0.0694602 0.113479 -0.0942909
internal_weight=57.7397 34.7889 22.9508 27.6782 12.1542 15.1126 15.524
internal_count=178 114 64 92 41 42 51
is_linear=0
shrinkage=0.1


Tree=14
num_leaves=8
num_cat=0
split_feature=6 9 1 9 12 9 11
split_gain=40.1983 3.43569 0.545371 0.00362457 0.00685565 0.000141606 7.30881e-05
threshold=1.3750000000000002 5.2650000000000015 3.0650000000000004 3.6500000000000008 917.50000000000011 5.6200000000000001 3.0600000000000001
decision_type=2 2 2 2 2 2 2
left_child=1 -1 3 6 -5 -6 -2
right_child=2 -3 -4 4 5 -7 -8
leaf_value=0.049442033008848918 -0.081097844381907883 0.1381455568994909 -0.04438170813170849 -0.086319370215150557 -0.081417453640630813 -0.082177021525699667 -0.080515760350096541
leaf_weight=6.47853755950928 4.367406174540525 13.39382693171501 4.4724611192941657 5.2019865959882727 4.4304429292678815 5.5030473619699478 4.2623682916164398
leaf_count=20 20 36 18 20 20 24 20
internal_value=0.000265383 0.109228 -0.076417 -0.0824459 -0.0833784 -0.0818382 -0.0808103
internal_weight=48.1101 19.8724 28.2377 23.7653 15.1355 9.93349 8.62977
internal_count=178 56 122 104 64 44 40
is_linear=0
shrinkage=0.1


Tree=15
num_leaves=8
num_cat=0
split_feature=12 0 12 9 12 6 5
split_gain=33.1295 3.20029 0.479263 0.00842645 0.00795694 0.00675612 0.000443299
threshold=755.00000000000011 13.405000000000003 676.50000000000011 3.6500000000000008 1140.0000000000002 1.1500000000000001 2.2100000000000004
decision_type=2 2 2 2 2 2 2
left_child=2 -2 3 6 -3 -5 -1
right_child=1 4 -4 5 -6 -7 -8
leaf_value=-0.080875827958603985 0.033849254534974407 0.11331956155325934 -0.049871402486620454 -0.083071529376626749 0.10880549954650759 -0.087914813445810952 -0.082211130905837759
leaf_weight=5.4171961098909431 8.0678331851959246 8.6562139689922315 5.2332476377487174 5.8536412715911847 7.1141993701457968 5.6699478328227997 4.595121368765831
leaf_count=25 23 24 20 25 20 21 20
internal_value=-0.000662958 0.0850764 -0.0770149 -0.0836108 0.111283 -0.0854546 -0.0814887
internal_weight=50.6074 23.8382 26.7692 21.5359 15.7704 11.5236 10.0123
internal_count=178 67 111 91 44 46 45
is_linear=0
shrinkage=0.1


Tree=16
num_leaves=8
num_cat=0
split_feature=9 12 10 6 12 9 7
split_gain=31.9562 6.56759 1.1386 0.146279 0.0289227 0.0162957 0.00117403
threshold=3.4600000000000004 525.00000000000011 1.1250000000000002 3.0150000000000001 512.50000000000011 5.0200000000000005 0.42500000000000004
decision_type=2 2 2 2 2 2 2
left_child=4 -2 3 5 -1 -3 -7
right_child=1 2 -4 -5 -6 6 -8
leaf_value=0.10230213375181335 0.029033216702294241 -0.095017802414913546 -0.037373344310790993 -0.07220393748265426 0.11020129984074836 -0.087610372355098998 -0.089679964840823648
leaf_weight=10.862094014883043 7.4499861299991599 6.3702611625194647 5.9485963582992545 5.4432639479637137 8.085805803537367 5.4125014543533307 5.5532961636781693
leaf_count=32 22 21 20 20 23 20 20
internal_value=0.000466857 -0.0546341 -0.0763314 -0.0865049 0.105673 -0.0909952 -0.0886585
internal_weight=55.1258 36.1779 28.7279 22.7793 18.9479 17.3361 10.9658
internal_count=178 123 101 81 55 61 40
is_linear=0
shrinkage=0.1


Tree=17
num_leaves=8
num_cat=0
split_feature=6 1 6 9 12 0 1
split_gain=34.2182 5.25366 0.22663 0.00468336 0.0113876 0.000261145 0.00011055
threshold=1.5750000000000004 2.4550000000000005 0.68500000000000016 3.6500000000000008 832.50000000000011 13.715000000000002 1.7400000000000002
decision_type=2 2 2 2 2 2 2
left_child=1 -1 -3 6 -5 -6 -2
right_child=3 2 -4 4 5 -7 -8
leaf_value=0.014463603236776163 -0.078652004838753731 0.13547790304147034 0.11115925002707472 -0.085869767190449198 -0.080611751785056002 -0.079598679066695835 -0.079352388311785232
leaf_weight=6.2085577994585064 4.8304761350154894 7.7793257236480695 7.5524751842021942 4.8259610384702674 4.2651337087154371 6.3072749674320221 4.2246514558792114
leaf_count=20 25 21 21 19 20 31 21
internal_value=0.000169908 0.0920715 0.123498 -0.0807834 -0.0818447 -0.0800074 -0.0789788
internal_weight=45.9939 21.5404 15.3318 24.4535 15.3984 10.5724 9.05513
internal_count=178 62 42 116 70 51 46
is_linear=0
shrinkage=0.1


Tree=18
num_leaves=8
num_cat=0
split_feature=12 6 12 5 9 6 5
split_gain=28.0448 2.89099 0.480011 0.0654708 0.00867675 0.00722433 0.000318348
threshold=755.00000000000011 2.6650000000000005 676.50000000000011 2.9550000000000005 3.6500000000000008 1.1500000000000001 2.2100000000000004
decision_type=2 2 2 2 2 2 2
left_child=2 -2 4 -3 6 -6 -1
right_child=1 3 -4 -5 5 -7 -8
leaf_value=-0.078830776959189636 0.025526435483664019 0.1080508510217513 -0.046900885011542937 0.095174215226661571 -0.080984698157673007 -0.086164480941193 -0.080021070883306775
leaf_weight=4.8772010207176262 7.1079295873641994 8.7160634994506818 4.9683527648448935 7.2189730405807486 5.3732210844755155 5.3972976207733154 4.1664644032716751
leaf_count=25 21 25 20 21 25 21 20
internal_value=-0.000853611 0.078561 -0.0746938 0.102217 -0.0816628 -0.0835804 -0.0793792
internal_weight=47.8255 23.043 24.7825 15.935 19.8142 10.7705 9.04367
internal_count=178 67 111 46 91 46 45
is_linear=0
shrinkage=0.1


Tree=19
num_leaves=7
num_cat=0
split_feature=9 4 0 5 4 0
split_gain=27.1883 6.36744 1.52874 0.0815027 0.0269946 0.0224301
threshold=3.4600000000000004 88.500000000000014 12.865 2.1200000000000006 95.500000000000014 13.570000000000002
decision_type=2 2 2 2 2 2
left_child=4 -2 -3 -4 -1 -5
right_child=1 2 3 5 -6 -7
leaf_value=0.097161060386050713 0.0413180320179901 -0.026633856916980055 -0.074070693488405934 -0.092108670937706638 0.10516146702594796 -0.084431620530565119
leaf_weight=11.216643363237383 6.06510305404663 5.9624265432357815 6.3585557639598873 6.2888242900371543 6.7588074505329123 9.638813763856886
leaf_count=35 18 19 25 22 20 39
internal_value=0.000541684 -0.0516488 -0.0716092 -0.0836419 0.100169 -0.0874628
internal_weight=52.2892 34.3137 28.2486 22.2862 17.9755 15.9276
internal_count=178 123 105 86 55 61
is_linear=0
shrinkage=0.1


Tree=20
num_leaves=8
num_cat=0
split_feature=6 10 5 9 12 0 1
split_gain=29.3365 4.74458 0.105258 0.00516171 0.0127147 0.000459312 9.50146e-05
threshold=1.5750000000000004 0.80500000000000016 1.6150000000000004 3.6500000000000008 832.50000000000011 13.715000000000002 1.7400000000000002
decision_type=2 2 2 2 2 2 2
left_child=1 2 -1 6 -5 -6 -2
right_child=3 -3 -4 4 5 -7 -8
leaf_value=0.12360806346334284 -0.077014198098223324 0.012512314037549533 0.10676446563932701 -0.084786554905892875 -0.079244327387901548 -0.077843459052927985 -0.077697351649319318
leaf_weight=7.7101994752883929 4.34733594954014 6.3990302830934516 7.1511596441268921 4.6405258178710929 3.9719951301813108 5.6982550472021103 3.8290665745735168
leaf_count=21 25 21 20 19 20 31 21
internal_value=0.000285734 0.0845045 0.115503 -0.0793385 -0.0804837 -0.0784189 -0.0773341
internal_weight=43.7476 21.2604 14.8614 22.4872 14.3108 9.67025 8.1764
internal_count=178 62 41 116 70 51 46
is_linear=0
shrinkage=0.1


Tree=21
num_leaves=7
num_cat=0
split_feature=6 12 11 8 12 0
split_gain=24.0964 6.00799 0.0966368 0.0752544 0.0320742 0.00281077
threshold=2.3100000000000005 787.50000000000011 2.7600000000000002 1.9550000000000003 719.00000000000011 12.800000000000002
decision_type=2 2 2 2 2 2
left_child=2 -2 4 -3 5 -1
right_child=1 3 -4 -5 -6 -7
leaf_value=-0.078266493555590608 -0.01957271743321479 0.10294310334065249 -0.066837189247863929 0.089887653398455586 -0.090295061947928301 -0.081342955025489591
leaf_weight=5.3752420693635994 5.8817621171474483 9.6991224586963671 5.1781916469335547 8.1044263541698438 4.0101640671491614 6.6362188160419464
leaf_count=29 23 29 26 25 15 31
internal_value=-0.00126726 0.0680516 -0.0787132 0.0970001 -0.0825515 -0.0799662
internal_weight=44.8851 23.6853 21.1998 17.8035 16.0216 12.0115
internal_count=178 77 101 54 75 60
is_linear=0
shrinkage=0.1


Tree=22
num_leaves=8
num_cat=0
split_feature=9 0 4 6 11 12 9
split_gain=23.5154 3.68536 0.756153 0.676443 0.0268811 0.0130325 0.00162435
threshold=3.8200000000000003 12.745000000000003 92.500000000000014 2.2450000000000006 2.7000000000000006 737.50000000000011 5.7250000000000005
decision_type=2 2 2 2 2 2 2
left_child=3 -2 -3 4 -1 -4 -7
right_child=1 2 5 -5 -6 6 -8
leaf_value=0.10199187904431278 0.014056066887731975 -0.041517610657065593 -0.088071535616537217 0.058865305153274497 0.092932929934431918 -0.083262922418090635 -0.080969702486942741
leaf_weight=6.8592175245285052 5.9425573498010662 5.4579296559095409 5.4996119737625149 6.8310658037662497 6.2696751058101654 6.8452955186367017 5.6285366266965866
leaf_count=21 18 20 21 22 21 29 26
internal_value=0.000632948 -0.0562788 -0.0741169 0.0843868 0.0976658 -0.0840161 -0.0822282
internal_weight=49.3339 29.3739 23.4314 19.96 13.1289 17.9734 12.4738
internal_count=178 114 96 64 42 76 55
is_linear=0
shrinkage=0.1


Tree=23
num_leaves=8
num_cat=0
split_feature=6 10 5 9 12 0 12
split_gain=25.4723 4.05613 0.0873313 0.00529685 0.0138398 0.000488787 4.27626e-05
threshold=1.5750000000000004 0.80500000000000016 1.6150000000000004 3.4600000000000004 787.50000000000011 13.675000000000002 484.00000000000006
decision_type=2 2 2 2 2 2 2
left_child=1 2 -1 6 -5 -6 -2
right_child=3 -3 -4 4 5 -7 -8
leaf_value=0.11539692730419093 -0.076059229543995466 0.011903517520433962 0.099844193640174272 -0.083947391277928704 -0.077936982162976523 -0.076471042540908085 -0.075561424533731519
leaf_weight=7.5410482585430163 3.8912114650011089 6.3164683133363715 6.9266721904277802 4.263816073536872 3.8747011423110944 5.5074826180934906 3.100661039352417
leaf_count=21 24 21 20 18 21 33 20
internal_value=0.000619365 0.0787613 0.107951 -0.0780766 -0.0792233 -0.0770765 -0.0758385
internal_weight=41.4221 20.7842 14.4677 20.6379 13.646 9.38218 6.99187
internal_count=178 62 41 116 72 54 44
is_linear=0
shrinkage=0.1


Tree=24
num_leaves=8
num_cat=0
split_feature=12 3 5 9 9 10 6
split_gain=20.5685 2.28648 0.590559 0.0585916 0.00723144 0.0115754 0.000160843
threshold=755.00000000000011 18.850000000000005 2.6350000000000002 5.4150000000000009 3.6500000000000008 0.80500000000000016 1.8450000000000004
decision_type=2 2 2 2 2 2 2
left_child=2 3 4 -2 6 -6 -1
right_child=1 -3 -4 -5 5 -7 -8
leaf_value=-0.075822471488760257 0.098394765065256184 0.020128821898204603 -0.035102929262294663 0.085547402441055839 -0.077539786582119269 -0.084367357742828497 -0.076766901965430734
leaf_weight=3.6326730251312318 6.717917740345003 6.5254788398742667 3.7804320007562628 7.5273841023445129 5.8645525872707349 4.3066552877426147 3.5807853639125824
leaf_count=23 21 21 16 25 33 18 21
internal_value=-0.0015452 0.0691503 -0.0709236 0.0916061 -0.0787131 -0.0804307 -0.0762913
internal_weight=41.9359 20.7708 21.1651 14.2453 17.3847 10.1712 7.21346
internal_count=178 67 111 46 95 51 44
is_linear=0
shrinkage=0.1


Tree=25
num_leaves=7
num_cat=0
split_feature=9 12 9 12 4 4
split_gain=20.234 5.70613 1.23388 0.0239074 0.0202103 0.000475994
threshold=3.4600000000000004 512.50000000000011 4.8500000000000005 655.00000000000011 95.500000000000014 101.50000000000001
decision_type=2 2 2 2 2 2
left_child=4 -2 -3 -4 -1 -5
right_child=1 2 3 5 -6 -7
leaf_value=0.089558540243326656 0.046102295452795344 -0.035579056530212337 -0.088606098914746662 -0.080965510315739925 0.096886136588899857 -0.079677407179331167
leaf_weight=9.7970486879348737 5.4454526305198696 8.4094438701868075 4.6857704520225552 4.7335058450698835 6.1123425662517539 7.2823835611343384
leaf_count=35 17 30 18 22 20 36
internal_value=0.00092064 -0.0466948 -0.0668183 -0.0825475 0.0923738 -0.0801848
internal_weight=46.4659 30.5566 25.1111 16.7017 15.9094 12.0159
internal_count=178 123 106 76 55 58
is_linear=0
shrinkage=0.1


Tree=26
num_leaves=7
num_cat=0
split_feature=6 9 9 9 12 7
split_gain=22.0013 2.09449 0.469684 0.00857581 0.0155844 9.93127e-05
threshold=1.3750000000000002 5.2650000000000015 6.0500000000000007 3.6500000000000008 832.50000000000011 0.39500000000000007
decision_type=2 2 2 2 2 2
left_child=1 -1 3 5 -5 -2
right_child=2 -3 -4 4 -6 -7
leaf_value=0.033085139810675006 -0.074688863673431166 0.104251155063144 -0.038325654208957859 -0.083808402198486398 -0.075824446223979436 -0.07544830612542601
leaf_weight=6.2764824628829983 4.0045499652624192 12.124063700437544 3.6983705312013617 4.6298442184925062 5.180474229156971 3.0208882838487625
leaf_count=20 28 36 21 20 33 20
internal_value=0.000565585 0.0799762 -0.0705939 -0.0776824 -0.0795924 -0.0750154
internal_weight=38.9347 18.4005 20.5341 16.8358 9.81032 7.02544
internal_count=178 56 122 101 53 48
is_linear=0
shrinkage=0.1


Tree=27
num_leaves=7
num_cat=0
split_feature=6 0 3 0 12 9
split_gain=17.9708 5.05242 0.108028 0.091618 0.0297833 0.00261997
threshold=2.3100000000000005 13.135000000000002 18.050000000000004 13.735000000000001 719.00000000000011 3.6500000000000008
decision_type=2 2 2 2 2 2
left_child=2 -2 -1 -3 5 -4
right_child=1 3 4 -5 -6 -7
leaf_value=-0.05930345962905921 -0.014275458303711514 0.10160195470167338 -0.074813221444753261 0.085666930259599552 -0.087366689387864307 -0.077983667491737754
leaf_weight=3.3082124069333103 6.3564797192811993 6.0999646782875052 4.203076630830763 8.8323027640581113 3.4967351853847495 6.8616854250431061
leaf_count=19 25 20 29 32 14 39
internal_value=-0.00167445 0.0603917 -0.0756158 0.0921765 -0.0793217 -0.0767793
internal_weight=39.1585 21.2887 17.8697 14.9323 14.5615 11.0648
internal_count=178 77 101 52 82 68
is_linear=0
shrinkage=0.1


Tree=28
num_leaves=8
num_cat=0
split_feature=9 1 0 4 9 12 12
split_gain=17.504 5.1038 0.700099 0.342764 0.0230173 0.0193252 0.0012883
threshold=3.4600000000000004 1.5500000000000003 12.845000000000001 92.500000000000014 5.0200000000000005 512.50000000000011 832.50000000000011
decision_type=2 2 2 2 2 2 2
left_child=5 -2 -3 -4 -5 -1 -6
right_child=1 2 3 4 6 -7 -8
leaf_value=0.08610545092798938 0.04009828036391147 -0.031411268978347798 -0.048470501697618823 -0.087248352913266228 -0.080191196574429219 0.093377219626883959 -0.077809299255596334
leaf_weight=8.1953150033950788 5.7117085605859783 4.7763429433107403 3.9828388094902065 4.8450718373060218 3.8038443922996503 6.5961276292800894 5.6341586261987686
leaf_count=32 19 17 17 20 19 23 31
internal_value=0.000950469 -0.0445226 -0.0654984 -0.0744118 -0.0816455 0.0893482 -0.0787693
internal_weight=43.5454 28.754 23.0423 18.2659 14.2831 14.7914 9.438
internal_count=178 123 104 87 70 55 50
is_linear=0
shrinkage=0.1


Tree=29
num_leaves=8
num_cat=0
split_feature=6 1 6 9 12 0 6
split_gain=19.237 3.40208 0.165457 0.00481441 0.0127528 0.000168834 7.2143e-05
threshold=1.5750000000000004 2.4550000000000005 0.68500000000000016 3.6500000000000008 787.50000000000011 13.715000000000002 2.2450000000000006
decision_type=2 2 2 2 2 2 2
left_child=1 -1 -3 6 -5 -6 -2
right_child=3 2 -4 4 5 -7 -8
leaf_value=0.0033739282466824293 -0.073377386844895934 0.10663351623091338 0.084652845445251368 -0.081867952771804642 -0.075352258383486803 -0.074390700912223398 -0.074078761083366862
leaf_weight=5.5669846385717419 3.2351320609450367 7.1207255721092206 6.5974318534135818 3.8761587738990766 3.1750874444842339 4.2976805865764618 2.6826252415776253
leaf_count=20 26 21 21 18 21 31 20
internal_value=0.000661533 0.0693063 0.0960624 -0.0760077 -0.0772135 -0.0747993 -0.0736953
internal_weight=36.5518 19.2851 13.7182 17.2667 11.3489 7.47277 5.91776
internal_count=178 62 42 116 70 52 46
is_linear=0
shrinkage=0.1


end of trees

feature_importances:
Column_9=44
Column_12=44
Column_0=27
Column_6=25
Column_5=11
Column_11=10
Column_4=9
Column_1=8
Column_10=8
Column_3=5
Column_7=2
Column_8=2

parameters:
[boosting: gbdt]
[objective: multiclass]
[metric: multi_logloss]
[tree_learner: serial]
[device_type: cpu]
[data_sample_strategy: bagging]
[data: ]
[valid: ]
[num_iterations: 10]
[learning_rate: 0.1]
[num_leaves: 31]
[num_threads: 0]
[seed: 0]
[deterministic: 0]
[force_col_wise: 0]
[force_row_wise: 0]
[histogram_pool_size: -1]
[max_depth: -1]
[min_data_in_leaf: 20]
[min_sum_hessian_in_leaf: 0.001]
[bagging_fraction: 1]
[pos_bagging_fraction: 1]
[neg_bagging_fraction: 1]
[bagging_freq: 0]
[bagging_seed: 3]
[bagging_by_query: 0]
[feature_fraction: 1]
[feature_fraction_bynode: 1]
[feature_fraction_seed: 2]
[extra_trees: 0]
[extra_seed: 6]
[early_stopping_round: 0]
[early_stopping_min_delta: 0]
[first_metric_only: 0]
[max_delta_step: 0]
[lambda_l1: 0]
[lambda_l2: 0]
[linear_lambda: 0]
[min_gain_to_split: 0]
[drop_rate: 0.1]
[max_drop: 50]
[skip_drop: 0.5]
[xgboost_dart_mode: 0]
[uniform_drop: 0]
[drop_seed: 4]
[top_rate: 0.2]
[other_rate: 0.1]
[min_data_per_group: 100]
[max_cat_threshold: 32]
[cat_l2: 10]
[cat_smooth: 10]
[max_cat_to_onehot: 4]
[top_k: 20]
[monotone_constraints: ]
[monotone_constraints_method: basic]
[monotone_penalty: 0]
[feature_contri: ]
[forcedsplits_filename: ]
[refit_decay_rate: 0.9]
[cegb_tradeoff: 1]
[cegb_penalty_split: 0]
[cegb_penalty_feature_lazy: ]
[cegb_penalty_feature_coupled: ]
[path_smooth: 0]
[interaction_constraints: ]
[verbosity: -1]
[saved_feature_importance_type: 0]
[use_quantized_grad: 0]
[num_grad_quant_bins: 4]
[quant_train_renew_leaf: 0]
[stochastic_rounding: 1]
[linear_tree: 0]
[max_bin: 255]
[max_bin_by_feature: ]
[min_data_in_bin: 3]
[bin_construct_sample_cnt: 200000]
[data_random_seed: 1]
[is_enable_sparse: 1]
[enable_bundle: 1]
[use_missing: 1]
[zero_as_missing: 0]
[feature_pre_filter: 1]
[pre_partition: 0]
[two_round: 0]
[header: 0]
[label_column: ]
[weight_column: ]
[group_column: ]
[ignore_column: ]
[categorical_feature: ]
[forcedbins_filename: ]
[precise_float_parser: 0]
[parser_config_file: ]
[objective_seed: 5]
[num_class: 3]
[is_unbalance: 0]
[scale_pos_weight: 1]
[sigmoid: 1]
[boost_from_average: 1]
[reg_sqrt: 0]
[alpha: 0.9]
[fair_c: 1]
[poisson_max_delta_step: 0.7]
[tweedie_variance_power: 1.5]
[lambdarank_truncation_level: 30]
[lambdarank_norm: 1]
[label_gain: ]
[lambdarank_position_bias_regularization: 0]
[eval_at: ]
[multi_error_top_k: 1]
[auc_mu_weights: ]
[num_machines: 1]
[local_listen_port: 12400]
[time_out: 120]
[machine_list_filename: ]
[machines: ]
[gpu_platform_id: -1]
[gpu_device_id: -1]
[gpu_use_dp: 0]
[num_gpu: 1]

end of parameters

pandas_categorical:null
