tree
version=v4
num_class=3
num_tree_per_iteration=3
label_index=0
max_feature_idx=12
objective=multiclass num_class:3
feature_names=Column_0 Column_1 Column_2 Column_3 Column_4 Column_5 Column_6 Column_7 Column_8 Column_9 Column_10 Column_11 Column_12
feature_infos=[11.029999999999999:14.83] [0.89000000000000001:5.7999999999999998] [1.3600000000000001:3.23] [10.6:30] [70:162] [0.97999999999999998:3.8799999999999999] [0.34000000000000002:5.0800000000000001] [0.13:0.66000000000000003] [0.41999999999999998:3.5800000000000001] [1.74:13] [0.47999999999999998:1.71] [1.27:4] [278:1547]
tree_sizes=550 553 549 770 657 776 752 764 666 666 651 771 762 765 771 668 663 664 665 759 667 775 872 663 667 767 778 773 767 768 772 869 776 770 766 770 772 874 777 778 874 776 769 874 770 770 765 773 760 972 771 874 767 881 880 974 777 874 976 776 776 870 775 873 973 773 882 869 780 870 770 783 770 876 773 881 872 785 674 987 779 774 969 775 989 756 780 884 985 890 779 766 996 783 869 778 780 991 888 886 774 1001 787 992 783 890 776 779 783 989 787 888 876 895 785 778 790 998 886 782 684 777 894 900 993 892 776 776 897 1005 997 895 683 780 896 902 879 895 785 891 901 787 983 901 901 783 904 787 894 1004 794 885 904 784 983 1013 909 785 903 792 1111 903 792 890 906 802 1114 890 903 897 907 1011 894 909 909 893 904 907 895 897 795 895 908 1012 1004 912 1017 1012 910 907 1006 798 1009 894 898 805 903 898 1019 1009 914 907 1120 901 801 1009 913 903 1124 807 1021 898 791 798 1009 796 804 1010 804 918 1235 902 1133 1125 803 918 1119 910 913 1013 798 921 1244 807 1031 1132 1144 805 913 1143 910 915 808 1030 1126 909 1031 910 909 1141 1253 923 1036 1018 906 802 1246 922 915 1026 809 1031 1254 816 809 1027 920 930 1138 925 926 1030 927 918 1135 818 922 1249 925 924 793 817 703 1246 811 814 1030 811 819 1035 702 706 914 579 813 919 708 813 916 588

Tree=0
num_leaves=4
num_cat=0
split_feature=12 0 5
split_gain=67.8702 5.99022 0.480561
threshold=755.00000000000011 13.365000000000002 2.5150000000000001
decision_type=2 2 2
left_child=2 -2 -1
right_child=1 -3 -4
leaf_value=-1.2467590695806938 -1.0619801449217119 -0.93879419514905715 -1.2159625821375302
leaf_weight=23.054577976465229 6.4942473173141506 10.066083341836928 6.4942473173141471
leaf_count=71 20 31 20
internal_value=-1.14916 -0.987102 -1.23999
internal_weight=46.1092 16.5603 29.5488
internal_count=142 51 91
is_linear=0
shrinkage=1


Tree=1
num_leaves=4
num_cat=0
split_feature=9 0 4
split_gain=66.5999 3.57608 0.768335
threshold=3.8200000000000003 13.060000000000002 97.500000000000014
decision_type=2 2 2
left_child=2 -2 -1
right_child=1 -3 -4
leaf_value=-0.74669391919536887 -0.95478473386426099 -1.0241483387538917 -0.78831208212914716
leaf_weight=11.533426284790041 11.533426284790037 20.904335141181946 7.2083914279937735
leaf_count=32 32 58 20
internal_value=-0.912776 -0.999486 -0.762701
internal_weight=51.1796 32.4378 18.7418
internal_count=142 90 52
is_linear=0
shrinkage=1


Tree=2
num_leaves=4
num_cat=0
split_feature=11 10 0
split_gain=75.0382 4.63722 3.55271e-15
threshold=2.1900000000000004 0.74500000000000011 13.825000000000001
decision_type=2 2 2
left_child=1 -1 -2
right_child=2 -3 -4
leaf_value=-1.0302809256922496 -1.359758065945345 -1.145597924780833 -1.359758065945345
leaf_weight=8.1948024630546552 22.459828972816471 6.0702240467071524 6.3737352490425101
leaf_count=27 74 20 21
internal_value=-1.26695 -1.07935 -1.35976
internal_weight=43.0986 14.265 28.8336
internal_count=142 47 95
is_linear=0
shrinkage=1


Tree=3
num_leaves=6
num_cat=0
split_feature=12 3 5 0 12
split_gain=54.032 4.13674 0.439758 0.000405994 0.000143476
threshold=755.00000000000011 17.550000000000004 2.5150000000000001 13.010000000000002 566.00000000000011
decision_type=2 2 2 2 2
left_child=2 -2 3 4 -1
right_child=1 -3 -4 -5 -6
leaf_value=-0.092794611832639373 0.17617980337273542 0.077791141676958442 -0.063291110314313545 -0.09400153133202592 -0.093416010967474428
leaf_weight=8.7955138683319145 10.576944828033449 7.1703428030014029 6.278238743543624 6.4926172792911521 6.4335015118122092
leaf_count=29 30 21 20 21 21
internal_value=-7.88639e-05 0.136428 -0.0866019 -0.0933394 -0.0930571
internal_weight=45.7472 17.7473 27.9999 21.7216 15.229
internal_count=142 51 91 71 50
is_linear=0
shrinkage=0.1


Tree=4
num_leaves=5
num_cat=0
split_feature=9 0 6 0
split_gain=53.6485 3.15129 0.585205 0.000792514
threshold=3.8200000000000003 13.060000000000002 2.1350000000000002 13.750000000000002
decision_type=2 2 2 2
left_child=2 -2 -1 -3
right_child=1 3 -4 -5
leaf_value=0.14620915176208793 -0.038386124832782288 -0.1048973144026685 0.1109765408618103 -0.10363894039581106
leaf_weight=11.155541539192201 11.368908345699312 10.411028206348421 8.1647109389305097 9.6380037069320661
leaf_count=30 32 30 22 28
internal_value=0.000192437 -0.0804435 0.13132 -0.104292
internal_weight=50.7382 31.4179 19.3203 20.049
internal_count=142 90 52 58
is_linear=0
shrinkage=0.1


Tree=5
num_leaves=6
num_cat=0
split_feature=11 10 9 0 6
split_gain=59.2996 2.97821 0.000792149 0.000859352 0.000112807
threshold=2.1900000000000004 0.74500000000000011 3.8200000000000003 13.485000000000001 2.1350000000000002
decision_type=2 2 2 2 2
left_child=1 -1 4 -4 -2
right_child=2 -3 3 -5 -6
leaf_value=0.19126261602035055 -0.089347066106055917 0.10277118466142537 -0.091073666067303938 -0.089480349099705703 -0.088762471950829161
leaf_weight=9.1947669982910138 7.1022441089153308 6.4860480725765219 5.8798687160015088 7.9780756235122681 6.1670584082603455
leaf_count=27 25 20 20 28 22
internal_value=-0.000143809 0.15466 -0.0896276 -0.0901564 -0.0890754
internal_weight=42.8081 15.6808 27.1272 13.8579 13.2693
internal_count=142 47 95 48 47
is_linear=0
shrinkage=0.1


Tree=6
num_leaves=6
num_cat=0
split_feature=12 3 0 6 9
split_gain=43.996 2.96086 0.425179 0.0034761 0.000218935
threshold=755.00000000000011 17.550000000000004 13.185 1.9850000000000001 3.8200000000000003
decision_type=2 2 2 2 2
left_child=2 -2 3 4 -1
right_child=1 -3 -4 -5 -6
leaf_value=-0.088758927926720244 0.15111761049957734 0.06918275963952579 -0.060772078406892388 -0.091910738149213383 -0.089608112904909179
leaf_weight=5.8797897696495109 11.072813391685488 7.330083340406417 6.4901638925075522 7.7197338938713065 6.2774381637573242
leaf_count=21 30 21 22 26 22
internal_value=-0.000177081 0.118482 -0.082995 -0.0902512 -0.0891974
internal_weight=44.77 18.4029 26.3671 19.877 12.1572
internal_count=142 51 91 69 43
is_linear=0
shrinkage=0.1


Tree=7
num_leaves=6
num_cat=0
split_feature=9 12 10 4 0
split_gain=43.9647 2.98492 0.526853 0.358229 0.00799462
threshold=3.8200000000000003 566.00000000000011 1.0950000000000004 95.500000000000014 13.485000000000001
decision_type=2 2 2 2 2
left_child=2 -2 -1 -3 -5
right_child=1 3 -4 4 -6
leaf_value=0.13175307707142944 -0.017179646949983755 -0.072773370507101851 0.098425772429300229 -0.10252968539644514 -0.098116390465026362
leaf_weight=11.217459172010424 6.8640455901622799 6.7499545812606838 8.2187580168247205 7.4491910338401821 9.141953766345976
leaf_count=30 20 20 22 22 28
internal_value=0.000342352 -0.0751487 0.11766 -0.092196 -0.100098
internal_weight=49.6414 30.2051 19.4362 23.3411 16.5911
internal_count=142 90 52 70 50
is_linear=0
shrinkage=0.1


Tree=8
num_leaves=5
num_cat=0
split_feature=6 11 9 0
split_gain=49.0796 2.93114 0.00315349 0.00785355
threshold=1.4000000000000001 1.7650000000000003 3.7200000000000006 13.295000000000002
decision_type=2 2 2 2
left_child=1 -1 -2 -4
right_child=2 -3 3 -5
leaf_value=0.16756275018902503 -0.086268213403899952 0.08146591732254202 -0.091314432279452698 -0.086670664283576448
leaf_weight=10.043902128934862 10.233048155903818 6.5218526721000663 6.0973276495933524 9.0434139519929868
leaf_count=28 39 20 21 34
internal_value=-0.00021619 0.133667 -0.0876243 -0.0885408
internal_weight=41.9395 16.5658 25.3738 15.1407
internal_count=142 48 94 55
is_linear=0
shrinkage=0.1


Tree=9
num_leaves=5
num_cat=0
split_feature=12 12 4 9
split_gain=36.2445 2.50629 0.435451 0.00363292
threshold=755.00000000000011 1027.5000000000002 102.50000000000001 3.8200000000000003
decision_type=2 2 2 2
left_child=2 -2 3 -1
right_child=1 -3 -4 -5
leaf_value=-0.086273930042459188 0.061722878602486264 0.13604402094258536 -0.057166900991594494 -0.089091173947846658
leaf_weight=9.721086531877523 7.8077283799648312 10.832794427871702 6.3184249699115744 8.6504106223583204
leaf_count=37 22 29 23 31
internal_value=-0.000343961 0.104914 -0.0798122 -0.0876005
internal_weight=43.3304 18.6405 24.6899 18.3715
internal_count=142 51 91 68
is_linear=0
shrinkage=0.1


Tree=10
num_leaves=5
num_cat=0
split_feature=9 0 0 12
split_gain=36.46 2.80043 0.485702 0.00429581
threshold=3.8200000000000003 13.060000000000002 12.31 755.00000000000011
decision_type=2 2 2 2
left_child=2 -2 -1 -3
right_child=1 3 -4 -5
leaf_value=0.12032136336502322 -0.030451481626418947 -0.096741473647639825 0.087924072409238094 -0.093545768917519201
leaf_weight=11.438782393932344 10.862929821014406 6.6902732253074673 7.7715446054935446 11.329930752515791
leaf_count=31 32 21 21 37
internal_value=0.000452233 -0.0705563 0.107215 -0.0947322
internal_weight=48.0935 28.8831 19.2103 18.0202
internal_count=142 90 52 58
is_linear=0
shrinkage=0.1


Tree=11
num_leaves=6
num_cat=0
split_feature=6 1 9 0 5
split_gain=41.0969 2.41674 0.0048369 0.00902147 0.00053188
threshold=1.4000000000000001 3.0100000000000002 3.8200000000000003 13.365000000000002 2.3350000000000004
decision_type=2 2 2 2 2
left_child=1 -1 4 -4 -2
right_child=2 -3 3 -5 -6
leaf_value=0.075599435212551913 -0.084484644929393102 0.15151503174982039 -0.089704688065552429 -0.084388814372685764 -0.083070648468344388
leaf_weight=7.4591467380523708 5.4379356652498263 9.5780512690544111 5.584535747766493 7.4532043635845184 5.2078966349363327
leaf_count=22 22 26 20 30 22
internal_value=-0.000168109 0.118278 -0.0853744 -0.0866658 -0.0837929
internal_weight=40.7208 17.0372 23.6836 13.0377 10.6458
internal_count=142 48 94 50 44
is_linear=0
shrinkage=0.1


Tree=12
num_leaves=6
num_cat=0
split_feature=12 0 0 9 6
split_gain=30.2892 2.14898 0.444508 0.00569591 0.000469935
threshold=755.00000000000011 13.365000000000002 13.185 3.8200000000000003 1.9850000000000001
decision_type=2 2 2 2 2
left_child=2 -2 3 4 -1
right_child=1 -3 -4 -5 -6
leaf_value=-0.082836783020567628 0.051325436696866435 0.12143994017276222 -0.053114464315871551 -0.087203156691484152 -0.084216242570285482
leaf_weight=4.9361569583416038 7.0655777156353023 11.463908135890959 5.8122069835662833 7.3509471714496604 4.9420908093452454
leaf_count=21 20 31 22 28 20
internal_value=-0.000481528 0.0947042 -0.0770282 -0.0850954 -0.0835269
internal_weight=41.5709 18.5295 23.0414 17.2292 9.87825
internal_count=142 51 91 69 41
is_linear=0
shrinkage=0.1


Tree=13
num_leaves=6
num_cat=0
split_feature=9 12 12 9 12
split_gain=30.5825 4.92234 0.837615 0.0379413 0.0249022
threshold=3.4900000000000007 555.00000000000011 719.00000000000011 5.1500000000000012 497.50000000000006
decision_type=2 2 2 2 2
left_child=4 -2 -3 -4 -1
right_child=1 2 3 -5 -6
leaf_value=0.10954549553772126 0.015336878732000313 -0.053837312800164211 -0.099485351353866769 -0.089462296727547616 0.11748847847159172
leaf_weight=8.208090126514433 7.017824441194537 7.9681442379951504 6.6258557438850394 8.782891318202017 7.6031560003757468
leaf_count=23 21 25 21 31 21
internal_value=0.000566536 -0.0581109 -0.0801602 -0.0937723 0.113365
internal_weight=46.206 30.3947 23.3769 15.4087 15.8112
internal_count=142 98 77 52 44
is_linear=0
shrinkage=0.1


Tree=14
num_leaves=6
num_cat=0
split_feature=11 10 9 0 6
split_gain=34.7312 1.62487 0.00254842 0.0045747 0.000971279
threshold=2.1900000000000004 0.74500000000000011 3.8200000000000003 13.485000000000001 1.9850000000000001
decision_type=2 2 2 2 2
left_child=1 -1 4 -4 -2
right_child=2 -3 3 -5 -6
leaf_value=0.13258290076455767 -0.082912390916421247 0.069912842382817697 -0.086205089025962162 -0.082204825658344083 -0.08097802162183651
leaf_weight=10.07966721057892 4.6580959260463732 7.0173291862010947 5.1505388617515546 6.4250185638666153 5.8629324585199356
leaf_count=27 20 20 20 28 27
internal_value=-0.000157163 0.10686 -0.0829609 -0.0839847 -0.0818344
internal_weight=39.1936 17.097 22.0966 11.5756 10.521
internal_count=142 47 95 48 47
is_linear=0
shrinkage=0.1


Tree=15
num_leaves=5
num_cat=0
split_feature=12 3 12 9
split_gain=25.1965 1.95367 0.589538 0.00522805
threshold=755.00000000000011 17.550000000000004 666.00000000000011 3.9150000000000005
decision_type=2 2 2 2
left_child=2 -2 3 -1
right_child=1 -3 -4 -5
leaf_value=-0.081436044835631882 0.1130160422606056 0.046261793972664784 -0.042813040170546324 -0.084971452874283482
leaf_weight=8.6416729390621239 10.750887751579286 7.4032940864562979 4.6243928521871558 8.1064006090164167
leaf_count=39 30 21 19 33
internal_value=-0.000835592 0.0857936 -0.0744201 -0.0831473
internal_weight=39.5266 18.1542 21.3725 16.7481
internal_count=142 51 91 72
is_linear=0
shrinkage=0.1


Tree=16
num_leaves=5
num_cat=0
split_feature=9 0 6 12
split_gain=25.9715 2.48311 0.459784 0.00841524
threshold=3.8200000000000003 13.060000000000002 2.1350000000000002 755.00000000000011
decision_type=2 2 2 2
left_child=2 -2 -1 -3
right_child=1 3 -4 -5
leaf_value=0.10669086752005288 -0.025108317998212816 -0.091114960365493394 0.07437916718741619 -0.086357437952525512
leaf_weight=10.35705015063286 10.346638187766077 6.023945063352584 7.6616218686103812 9.7124636620283109
leaf_count=30 32 21 22 37
internal_value=0.000622789 -0.0631599 0.0929518 -0.0881786
internal_weight=44.1017 26.083 18.0187 15.7364
internal_count=142 90 52 58
is_linear=0
shrinkage=0.1


Tree=17
num_leaves=5
num_cat=0
split_feature=6 11 9 0
split_gain=30.4278 1.69524 0.00817565 0.0194695
threshold=1.4000000000000001 1.7650000000000003 3.7200000000000006 13.295000000000002
decision_type=2 2 2 2
left_child=1 -1 -2 -4
right_child=2 -3 3 -5
leaf_value=0.12420259615065139 -0.079518060373452562 0.05954274753102895 -0.088100127569531034 -0.080175505249109574
leaf_weight=10.365537047386171 7.8468127399683025 6.6598983108997336 5.495403051376341 7.1131957471370697
leaf_count=28 39 20 21 34
internal_value=0.0001484 0.0989094 -0.0820523 -0.0836294
internal_weight=37.4808 17.0254 20.4554 12.6086
internal_count=142 48 94 55
is_linear=0
shrinkage=0.1


Tree=18
num_leaves=5
num_cat=0
split_feature=12 3 12 9
split_gain=21.3768 1.716 0.588892 0.00601175
threshold=755.00000000000011 17.550000000000004 666.00000000000011 3.9150000000000005
decision_type=2 2 2 2
left_child=2 -2 3 -1
right_child=1 -3 -4 -5
leaf_value=-0.079467001250774716 0.10562293214436079 0.04224605529466504 -0.039897306217056401 -0.083415353433171663
leaf_weight=7.8545764982700366 10.268277972936632 7.3162404000759116 4.3905251175165168 7.5756076574325562
leaf_count=39 30 21 19 33
internal_value=-0.00100584 0.0792543 -0.0722109 -0.0814055
internal_weight=37.4052 17.5845 19.8207 15.4302
internal_count=142 51 91 72
is_linear=0
shrinkage=0.1


Tree=19
num_leaves=6
num_cat=0
split_feature=9 0 4 0 12
split_gain=22.284 4.9327 1.29677 0.048801 0.032131
threshold=3.4900000000000007 12.755000000000001 94.500000000000014 13.255000000000001 497.50000000000006
decision_type=2 2 2 2 2
left_child=4 -2 -3 -4 -1
right_child=1 2 3 -5 -6
leaf_value=0.096723986247370913 0.026694856922327943 -0.033557033073648684 -0.096483472478401305 -0.085110109454529806 0.10616416475139878
leaf_weight=7.3688288927078229 6.1534277796745327 5.5821111351251629 6.2975763678550711 9.4098565429449064 7.059724748134613
leaf_count=23 19 20 21 38 21
internal_value=0.000733007 -0.0521642 -0.0749572 -0.08967 0.101343
internal_weight=41.8715 27.443 21.2895 15.7074 14.4286
internal_count=142 98 79 59 44
is_linear=0
shrinkage=0.1


Tree=20
num_leaves=5
num_cat=0
split_feature=6 1 9 0
split_gain=26.2009 1.52908 0.00854195 0.0199078
threshold=1.4000000000000001 3.0100000000000002 3.7200000000000006 13.295000000000002
decision_type=2 2 2 2
left_child=1 -1 -2 -4
right_child=2 -3 3 -5
leaf_value=0.056868705406404298 -0.077868683107226694 0.11781805960470666 -0.086844911905535699 -0.078561904014692013
leaf_weight=7.2947106659412411 7.1265638619661358 9.4464851915836316 5.2390404492616636 6.5038577616214752
leaf_count=22 39 26 21 34
internal_value=0.000194653 0.0912603 -0.0805998 -0.0822573
internal_weight=35.6107 16.7412 18.8695 11.7429
internal_count=142 48 94 55
is_linear=0
shrinkage=0.1


Tree=21
num_leaves=6
num_cat=0
split_feature=6 0 10 12 7
split_gain=18.2215 4.89507 0.0939207 0.0243866 0.000965095
threshold=2.2650000000000001 13.060000000000002 1.0050000000000001 677.50000000000011 0.46000000000000002
decision_type=2 2 2 2 2
left_child=2 -2 3 4 -1
right_child=1 -3 -4 -5 -6
leaf_value=-0.077719979686689533 -0.0088070445847790134 0.10169132065992358 -0.064553627804250432 -0.088472092476437211 -0.079838580086867006
leaf_weight=4.1814749687910098 5.8590021878480938 12.697653591632841 4.2804804593324652 3.7496891021728507 4.4261448234319687
leaf_count=23 21 39 22 15 22
internal_value=-0.0013293 0.066803 -0.0773194 -0.0817414 -0.0788094
internal_weight=35.1944 18.5567 16.6378 12.3573 8.60762
internal_count=142 60 82 60 45
is_linear=0
shrinkage=0.1


Tree=22
num_leaves=7
num_cat=0
split_feature=9 12 2 5 12 6
split_gain=19.1293 4.96081 0.706528 0.0599541 0.0358533 0.026734
threshold=3.4900000000000007 525.00000000000011 2.2650000000000001 1.9650000000000001 497.50000000000006 2.8950000000000005
decision_type=2 2 2 2 2 2
left_child=4 -2 -3 -4 -1 -5
right_child=1 2 3 5 -6 -7
leaf_value=0.091899110237918274 0.032924913043983928 -0.038342548396386567 -0.074059923991143389 -0.091981796159608609 0.10217171591993782 -0.081813086092605888
leaf_weight=6.8503580689430219 5.7128119021654156 4.6508095115423229 5.2785996198654166 5.4435882717370969 6.7407811284065247 4.9241398423910141
leaf_count=23 18 17 21 20 21 22
internal_value=0.000846596 -0.0493939 -0.0725633 -0.0827352 0.096994 -0.0871522
internal_weight=39.6011 26.0099 20.2971 15.6463 13.5911 10.3677
internal_count=142 98 80 63 44 42
is_linear=0
shrinkage=0.1


Tree=23
num_leaves=5
num_cat=0
split_feature=6 11 9 0
split_gain=22.764 1.42839 0.00888727 0.0215239
threshold=1.4000000000000001 1.7650000000000003 3.7200000000000006 13.255000000000001
decision_type=2 2 2 2
left_child=1 -1 -2 -4
right_child=2 -3 3 -5
leaf_value=0.10917926384993266 -0.076378125111931414 0.048822339897788322 -0.086249787235846892 -0.077273542295865721
leaf_weight=9.821642994880678 6.4167490005493191 6.5264204293489447 4.6248306632041913 6.3243785500526428
leaf_count=28 39 20 19 36
internal_value=0.000393243 0.0850838 -0.0793332 -0.081065
internal_weight=33.714 16.3481 17.366 10.9492
internal_count=142 48 94 55
is_linear=0
shrinkage=0.1


Tree=24
num_leaves=5
num_cat=0
split_feature=12 12 12 9
split_gain=15.7759 1.33773 0.586528 0.00623777
threshold=755.00000000000011 1027.5000000000002 666.00000000000011 3.7200000000000006
decision_type=2 2 2 2
left_child=2 -2 3 -1
right_child=1 -3 -4 -5
leaf_value=-0.076368146403849521 0.037087354915377749 0.095399472216056616 -0.034568960602196303 -0.080763476114609073
leaf_weight=5.7517849206924456 7.0309455990791312 8.9320243597030622 3.878542184829711 7.3610855937004089
leaf_count=35 22 29 19 37
internal_value=-0.00166799 0.0697157 -0.068731 -0.0788355
internal_weight=32.9544 15.963 16.9914 13.1129
internal_count=142 51 91 72
is_linear=0
shrinkage=0.1


Tree=25
num_leaves=6
num_cat=0
split_feature=9 12 9 5 0
split_gain=16.5671 3.25532 0.568228 0.169533 0.0120316
threshold=3.9150000000000005 525.00000000000011 3.1100000000000003 2.8550000000000004 13.255000000000001
decision_type=2 2 2 2 2
left_child=2 -2 -1 4 -3
right_child=1 3 -4 -5 -6
leaf_value=0.092243549336971584 0.016386628394935016 -0.087296412967198145 0.054122880698953005 -0.061571767039693998 -0.080921566792869395
leaf_weight=9.7420384883880633 4.6619822382926968 6.6751893311738986 6.5320304334163657 4.4270063638687125 5.3203154802322388
leaf_count=34 15 26 21 21 25
internal_value=0.00114404 -0.0573612 0.0769428 -0.0782966 -0.084469
internal_weight=37.3586 21.0845 16.2741 16.4225 11.9955
internal_count=142 87 55 72 51
is_linear=0
shrinkage=0.1


Tree=26
num_leaves=6
num_cat=0
split_feature=11 10 12 9 3
split_gain=19.6369 1.11636 0.00325177 0.00534876 0.000589281
threshold=2.1900000000000004 0.74500000000000011 737.50000000000011 3.0250000000000004 16.900000000000002
decision_type=2 2 2 2 2
left_child=1 -1 3 -2 -4
right_child=2 -3 4 -5 -6
leaf_value=0.10276763780001824 -0.076628357220603155 0.048831929563677288 -0.075182840788143315 -0.081659565951623631 -0.076957876040186654
leaf_weight=9.0244885981082934 4.6275795400142652 6.6767254024744025 3.7493609786033621 3.8887030035257339 3.7318293005228043
leaf_count=27 29 20 25 19 22
internal_value=0.000385753 0.0798322 -0.0775894 -0.0789257 -0.0760683
internal_weight=31.6987 15.7012 15.9975 8.51628 7.48119
internal_count=142 47 95 48 47
is_linear=0
shrinkage=0.1


Tree=27
num_leaves=6
num_cat=0
split_feature=6 0 11 12 0
split_gain=13.6784 3.81509 0.084157 0.00997022 0.00101405
threshold=2.2650000000000001 13.060000000000002 2.7600000000000002 677.50000000000011 12.830000000000002
decision_type=2 2 2 2 2
left_child=2 -2 3 4 -1
right_child=1 -3 -4 -5 -6
leaf_value=-0.075461103210121255 -0.0089218921260580519 0.092652180962520411 -0.060830774793192391 -0.083367591740613811 -0.077830492373943932
leaf_weight=3.2727578505873698 5.5074878334999111 11.253302305936812 3.4330276846885672 3.3352576196193695 4.031139925122261
leaf_count=22 21 39 21 16 23
internal_value=-0.00175435 0.0592756 -0.0744446 -0.0788375 -0.0767688
internal_weight=30.833 16.7608 14.0722 10.6392 7.3039
internal_count=142 60 82 61 45
is_linear=0
shrinkage=0.1


Tree=28
num_leaves=6
num_cat=0
split_feature=9 12 0 0 12
split_gain=14.3574 3.99043 0.710106 0.0799904 0.0354357
threshold=3.4900000000000007 525.00000000000011 12.855000000000002 13.515000000000002 512.50000000000011
decision_type=2 2 2 2 2
left_child=4 -2 -3 -4 -1
right_child=1 2 3 -5 -6
leaf_value=0.085431820138899731 0.029422444859661497 -0.030974861095180758 -0.08663246209365523 -0.071300364468379632 0.096377255486739435
leaf_weight=6.3704707324504835 5.5363385528326061 4.0225919634103802 6.6565072387456876 6.9614697992801666 5.5215171873569489
leaf_count=25 18 15 29 36 19
internal_value=0.00118789 -0.0446449 -0.0678903 -0.0787947 0.0905138
internal_weight=35.0689 23.1769 17.6406 13.618 11.892
internal_count=142 98 80 65 44
is_linear=0
shrinkage=0.1


Tree=29
num_leaves=6
num_cat=0
split_feature=6 1 9 12 3
split_gain=17.387 1.22497 0.00873762 0.027052 0.000607443
threshold=1.4000000000000001 3.0100000000000002 3.7200000000000006 755.00000000000011 16.900000000000002
decision_type=2 2 2 2 2
left_child=1 -1 -2 -4 -5
right_child=2 -3 3 4 -6
leaf_value=0.0435378453115274 -0.074078156967668632 0.10087112561381593 -0.08633020558313266 -0.074210355997232649 -0.076217219386350774
leaf_weight=6.6645937263965633 5.1690970733761779 8.4535132348537427 3.3984697759151441 3.1295844092965126 2.911261573433876
leaf_count=22 39 26 14 23 18
internal_value=0.000418274 0.0755966 -0.0773831 -0.0791929 -0.0751775
internal_weight=29.7265 15.1181 14.6084 9.43932 6.04085
internal_count=142 48 94 55 41
is_linear=0
shrinkage=0.1


Tree=30
num_leaves=6
num_cat=0
split_feature=12 3 12 5 9
split_gain=11.9294 1.12161 0.568448 0.00715967 0.00170286
threshold=755.00000000000011 17.550000000000004 666.00000000000011 2.5150000000000001 3.7200000000000006
decision_type=2 2 2 2 2
left_child=2 -2 3 4 -1
right_child=1 -3 -4 -5 -6
leaf_value=-0.073453050168526629 0.08824574490976228 0.03162080861307881 -0.030376911749574732 -0.080933714521192524 -0.076482783735385126
leaf_weight=3.0001565292477625 7.8765937685966474 6.2926316857337952 3.4337665140628806 3.2058219015598297 4.8605951815843582
leaf_count=24 30 21 19 17 31
internal_value=-0.00215681 0.0630983 -0.0659218 -0.0769508 -0.0753264
internal_weight=28.6696 14.1692 14.5003 11.0666 7.86075
internal_count=142 51 91 72 55
is_linear=0
shrinkage=0.1


Tree=31
num_leaves=7
num_cat=0
split_feature=9 0 4 9 12 0
split_gain=12.4591 3.61722 1.09217 0.0362639 0.0295204 0.00156374
threshold=3.4900000000000007 12.755000000000001 94.500000000000014 5.0200000000000005 512.50000000000011 13.750000000000002
decision_type=2 2 2 2 2 2
left_child=4 -2 -3 -4 -1 -5
right_child=1 2 3 5 -6 -7
leaf_value=0.083072258106591038 0.026778837269717099 -0.024479682150846005 -0.089471533338275844 -0.07934716344778793 0.093419571759862569 -0.076398682726834977
leaf_weight=5.867598354816435 5.6299314051866558 4.5167670547962215 4.4522183090448362 3.9572545140981674 5.2012809365987778 3.2976524084806442
leaf_count=25 19 20 18 21 19 20
internal_value=0.00149593 -0.0422849 -0.066251 -0.0823669 0.0879345 -0.078007
internal_weight=32.9227 21.8538 16.2239 11.7071 11.0689 7.25491
internal_count=142 98 79 59 44 41
is_linear=0
shrinkage=0.1


Tree=32
num_leaves=6
num_cat=0
split_feature=6 11 9 12 3
split_gain=15.1222 1.14407 0.00760663 0.0223381 0.000573002
threshold=1.4000000000000001 1.7650000000000003 3.7200000000000006 755.00000000000011 16.900000000000002
decision_type=2 2 2 2 2
left_child=1 -1 -2 -4 -5
right_child=2 -3 3 4 -6
leaf_value=0.094853220074042108 -0.073121400975016779 0.037733880215089631 -0.084727460470006233 -0.073250480524184799 -0.075296975266299096
leaf_weight=8.4888926744461077 4.6101428344845763 5.9746104031801215 3.2386612147092801 2.8002849817276001 2.6751862987875938
leaf_count=28 39 20 14 23 18
internal_value=0.000452888 0.0712583 -0.0764064 -0.0781442 -0.0742503
internal_weight=27.7878 14.4635 13.3243 8.71413 5.47547
internal_count=142 48 94 55 41
is_linear=0
shrinkage=0.1


Tree=33
num_leaves=6
num_cat=0
split_feature=6 0 11 12 10
split_gain=10.308 3.01908 0.0811859 0.00640479 0.00108728
threshold=2.2650000000000001 13.060000000000002 2.7600000000000002 677.50000000000011 0.83000000000000007
decision_type=2 2 2 2 2
left_child=2 -2 3 4 -1
right_child=1 -3 -4 -5 -6
leaf_value=-0.073691275316934229 -0.00903534048838181 0.085906040339755352 -0.057455524941958748 -0.080699027977608723 -0.076365522439275788
leaf_weight=3.1447505131363886 5.121907800436019 9.6783119142055494 2.8508447259664527 2.892913319170475 2.9432312026619911
leaf_count=25 21 39 21 16 20
internal_value=-0.00257611 0.0530497 -0.072158 -0.076825 -0.0749841
internal_weight=26.632 14.8002 11.8317 8.9809 6.08798
internal_count=142 60 82 61 45
is_linear=0
shrinkage=0.1


Tree=34
num_leaves=6
num_cat=0
split_feature=9 12 12 5 0
split_gain=10.9172 2.52027 0.462572 0.174237 0.0077155
threshold=3.9150000000000005 525.00000000000011 627.50000000000011 2.8550000000000004 13.255000000000001
decision_type=2 2 2 2 2
left_child=2 -2 -1 4 -3
right_child=1 3 -4 -5 -6
leaf_value=0.083239406709912922 0.014702666297911124 -0.082370574387273771 0.044672319855813963 -0.053640732522899442 -0.07661769324463108
leaf_weight=8.5610959827899951 4.387320980429652 5.4862784892320615 4.8840855807065955 3.4279793202877036 4.0538859143853188
leaf_count=38 15 26 17 21 25
internal_value=0.00158837 -0.0508129 0.0692296 -0.0729778 -0.079926
internal_weight=30.8006 17.3555 13.4452 12.9681 9.54016
internal_count=142 87 55 72 51
is_linear=0
shrinkage=0.1


Tree=35
num_leaves=6
num_cat=0
split_feature=6 1 11 9 0
split_gain=13.3848 1.10761 0.00738481 0.00261652 0.00578386
threshold=1.4000000000000001 3.0100000000000002 2.6000000000000001 3.8200000000000003 13.295000000000002
decision_type=2 2 2 2 2
left_child=1 -1 -2 -4 -5
right_child=2 -3 3 4 -6
leaf_value=0.036796395144227237 -0.080425483022835698 0.09369470126050583 -0.072190060371979295 -0.079089789233207683 -0.072915866657770501
leaf_weight=6.2185922265052813 2.5775680765509597 7.6056734919548035 3.4445717409253103 2.7090475186705589 3.4495222494006157
leaf_count=22 16 26 33 15 30
internal_value=0.000756939 0.0681 -0.0756728 -0.0743972 -0.0756317
internal_weight=26.005 13.8243 12.1807 9.60314 6.15857
internal_count=142 48 94 78 45
is_linear=0
shrinkage=0.1


Tree=36
num_leaves=6
num_cat=0
split_feature=12 0 12 5 9
split_gain=9.11693 0.947771 0.623203 0.00731299 0.00133879
threshold=755.00000000000011 13.295000000000002 677.50000000000011 2.5150000000000001 3.7200000000000006
decision_type=2 2 2 2 2
left_child=2 -2 3 4 -1
right_child=1 -3 -4 -5 -6
leaf_value=-0.071848977803931111 0.02618328940639076 0.082004427728496809 -0.021021706609267769 -0.079740840249655665 -0.074761144866882318
leaf_weight=2.4878252670168894 5.3618571013212186 7.028939887881279 2.6875703111290923 2.8359335884451866 4.3196132704615593
leaf_count=25 19 32 16 17 33
internal_value=-0.00273155 0.057849 -0.0636062 -0.0754743 -0.0736969
internal_weight=24.7217 12.3908 12.3309 9.64337 6.80744
internal_count=142 51 91 75 58
is_linear=0
shrinkage=0.1


Tree=37
num_leaves=7
num_cat=0
split_feature=9 4 12 9 12 0
split_gain=9.67172 3.61944 0.949374 0.0347707 0.0282992 0.000510698
threshold=3.4900000000000007 88.500000000000014 645.00000000000011 4.8500000000000005 512.50000000000011 13.750000000000002
decision_type=2 2 2 2 2 2
left_child=4 -2 -3 -4 -1 -5
right_child=1 2 3 5 -6 -7
leaf_value=0.079083729391643959 0.043250945354597121 -0.026579398711417832 -0.087355517216412104 -0.075992568804616953 0.089993043142287371 -0.074200934916492989
leaf_weight=4.8556461930274981 4.2104816436767605 5.1204340904951087 3.624190539121626 3.1404028236865997 4.6596800535917282 3.2246474772691727
leaf_count=25 15 22 16 21 19 24
internal_value=0.00190177 -0.0387421 -0.0615904 -0.0795368 0.084426 -0.0750849
internal_weight=28.8355 19.3202 15.1097 9.98924 9.51533 6.36505
internal_count=142 98 83 61 44 45
is_linear=0
shrinkage=0.1


Tree=38
num_leaves=6
num_cat=0
split_feature=11 10 12 9 3
split_gain=11.6532 0.911992 0.00283437 0.00701401 0.000449933
threshold=2.1900000000000004 0.74500000000000011 737.50000000000011 3.4900000000000007 16.900000000000002
decision_type=2 2 2 2 2
left_child=1 -1 3 -2 -4
right_child=2 -3 4 -5 -6
leaf_value=0.088757478380816213 -0.073137307124742548 0.035467179681510495 -0.07164366441127562 -0.080082007026814561 -0.073534652261526182
leaf_weight=7.1795137077569979 3.7427157014608365 5.8104017078876495 2.4015439227223396 2.3785612136125565 2.6430578231811523
leaf_count=27 36 20 25 12 22
internal_value=0.00052535 0.0649207 -0.0743895 -0.0758358 -0.0726344
internal_weight=24.1558 12.9899 11.1659 6.12128 5.0446
internal_count=142 47 95 48 47
is_linear=0
shrinkage=0.1


Tree=39
num_leaves=6
num_cat=0
split_feature=6 0 11 12 10
split_gain=7.87623 2.4319 0.0742226 0.00432356 0.000897633
threshold=2.2650000000000001 13.060000000000002 2.7600000000000002 677.50000000000011 0.83000000000000007
decision_type=2 2 2 2 2
left_child=2 -2 3 4 -1
right_child=1 -3 -4 -5 -6
leaf_value=-0.072145573238033833 -0.0086898207677670453 0.081236293874977064 -0.054848776666646164 -0.078542242329256121 -0.074821308869852096
leaf_weight=2.5360104665160197 4.7552061676979056 8.1812537610530836 2.360673688352108 2.5248970165848732 2.4796373173594475
leaf_count=25 21 39 21 16 20
internal_value=-0.00319603 0.0481811 -0.0703229 -0.0751673 -0.0734684
internal_weight=22.8377 12.9365 9.90122 7.54054 5.01565
internal_count=142 60 82 61 45
is_linear=0
shrinkage=0.1


Tree=40
num_leaves=7
num_cat=0
split_feature=9 4 12 9 12 0
split_gain=8.44014 3.13287 0.931571 0.0327459 0.0258112 0.000521902
threshold=3.4900000000000007 88.500000000000014 645.00000000000011 4.5500000000000007 512.50000000000011 13.715000000000002
decision_type=2 2 2 2 2 2
left_child=4 -2 -3 -4 -1 -5
right_child=1 2 3 5 -6 -7
leaf_value=0.077384074026895122 0.039710042350660217 -0.024420444574967063 -0.086637183036519197 -0.075002391299535481 0.088268662821702981 -0.073127726375945751
leaf_weight=4.3670659661293048 4.1240176707506206 4.9290004819631568 3.1527793630957586 2.8659020736813545 4.3475036174058914 3.082174077630043
leaf_count=25 15 22 14 21 19 26
internal_value=0.00192033 -0.0369119 -0.0594346 -0.0783981 0.0828142 -0.074031
internal_weight=26.8684 18.1539 14.0299 9.10086 8.71457 5.94808
internal_count=142 98 83 61 44 47
is_linear=0
shrinkage=0.1


Tree=41
num_leaves=6
num_cat=0
split_feature=6 11 11 9 0
split_gain=10.5272 0.965984 0.00993278 0.00201815 0.00509657
threshold=1.4000000000000001 1.7650000000000003 2.5050000000000003 3.8200000000000003 13.255000000000001
decision_type=2 2 2 2 2
left_child=1 -1 -2 -4 -5
right_child=2 -3 3 4 -6
leaf_value=0.086954242029765802 -0.081032533816403407 0.030556960795857575 -0.070905025424657028 -0.077705290219314424 -0.071508675696438637
leaf_weight=7.0796075761318225 1.944022350013255 5.3187282681465149 2.8024656400084478 2.3549520224332809 3.0416221767663956
leaf_count=28 13 20 34 14 33
internal_value=0.000949077 0.0627605 -0.0746059 -0.0730822 -0.0742127
internal_weight=22.5414 12.3983 10.1431 8.19904 5.39657
internal_count=142 48 94 81 47
is_linear=0
shrinkage=0.1


Tree=42
num_leaves=6
num_cat=0
split_feature=12 12 1 6 0
split_gain=7.00457 1.44784 0.18718 0.0109344 0.000757792
threshold=719.00000000000011 987.50000000000011 3.5000000000000004 2.1800000000000002 12.620000000000003
decision_type=2 2 2 2 2
left_child=2 -2 3 4 -1
right_child=1 -3 -4 -5 -6
leaf_value=-0.071310473960614296 0.01029510794684998 0.081218388564362948 -0.042220047974520489 -0.080964675395324412 -0.07380769478537684
leaf_weight=2.2522100061178225 5.3534560054540616 6.2255983501672745 2.231466144323349 2.3439824730157852 2.6390543431043625
leaf_count=26 26 32 20 15 23
internal_value=-0.00373631 0.0484277 -0.0675399 -0.075349 -0.0726578
internal_weight=21.0458 11.5791 9.46671 7.23525 4.89126
internal_count=142 58 84 64 49
is_linear=0
shrinkage=0.1


Tree=43
num_leaves=7
num_cat=0
split_feature=9 4 12 9 12 0
split_gain=7.40457 2.77655 0.895741 0.0257621 0.0212545 0.000482783
threshold=3.4900000000000007 88.500000000000014 645.00000000000011 4.5500000000000007 512.50000000000011 13.715000000000002
decision_type=2 2 2 2 2 2
left_child=4 -2 -3 -4 -1 -5
right_child=1 2 3 5 -6 -7
leaf_value=0.076190413019000175 0.037338275375832355 -0.022812535456016247 -0.084860674973044906 -0.074188350882156306 0.086478327634650548 -0.072285537634127026
leaf_weight=3.9707195311784762 4.0432836562395122 4.7298956215381613 2.9472082033753377 2.599836178123951 4.0629518926143646 2.7372917830944061
leaf_count=25 15 22 14 21 19 26
internal_value=0.00223625 -0.0350448 -0.057533 -0.0773564 0.0813934 -0.0732124
internal_weight=25.0912 17.0575 13.0142 8.28434 8.03367 5.33713
internal_count=142 98 83 61 44 47
is_linear=0
shrinkage=0.1


Tree=44
num_leaves=6
num_cat=0
split_feature=6 10 11 9 0
split_gain=9.28931 1.011 0.00877368 0.00162861 0.00385445
threshold=1.4000000000000001 0.75500000000000012 2.5050000000000003 3.4900000000000007 13.255000000000001
decision_type=2 2 2 2 2
left_child=1 -1 -2 -4 -5
right_child=2 -3 3 4 -6
leaf_value=0.08492256812631542 -0.080245806017667357 0.025341769105757139 -0.070142695657438275 -0.076372143544093024 -0.07095423894398413
leaf_weight=6.8467648923397082 1.8170308768749217 4.8763345927000046 2.1111071556806564 2.4162300676107407 2.8761609047651291
leaf_count=29 13 19 30 16 35
internal_value=0.00107543 0.0601394 -0.0740192 -0.072491 -0.0734278
internal_weight=20.9436 11.7231 9.22053 7.4035 5.29239
internal_count=142 48 94 81 51
is_linear=0
shrinkage=0.1


Tree=45
num_leaves=6
num_cat=0
split_feature=6 0 5 12 0
split_gain=6.08326 2.35905 0.0432539 0.00471369 0.000708073
threshold=2.1800000000000002 13.060000000000002 2.8150000000000004 702.50000000000011 12.620000000000003
decision_type=2 2 2 2 2
left_child=3 -2 -3 4 -1
right_child=1 2 -4 -5 -6
leaf_value=-0.070711813617593544 -0.01377753691891267 0.084892305581369565 0.069171415582880327 -0.07775210523162078 -0.07303286266302865
leaf_weight=2.1132607050240066 4.7209092378616315 3.7716904282569885 3.2652809619903564 2.0592138841748238 3.4766541197896004
leaf_count=28 26 19 21 14 34
internal_value=-0.00424803 0.0409095 0.0775975 -0.0736621 -0.0721554
internal_weight=19.407 11.7579 7.03697 7.64913 5.58991
internal_count=142 66 40 76 62
is_linear=0
shrinkage=0.1


Tree=46
num_leaves=6
num_cat=0
split_feature=9 1 9 3 0
split_gain=6.61152 2.29577 0.483723 0.332207 0.00612461
threshold=3.9150000000000005 1.5500000000000003 3.2750000000000004 21.550000000000004 13.255000000000001
decision_type=2 2 2 2 2
left_child=2 -2 -1 4 -3
right_child=1 3 -4 -5 -6
leaf_value=0.080238246785815245 0.041221935203886707 -0.078723254435543427 0.034906662224413063 -0.037091117911464501 -0.073024400738076936
leaf_weight=6.319773733615877 2.5504393428564063 3.5291045978665334 3.7511302530765533 3.1619813814759254 4.050032339990139
leaf_count=38 11 21 17 17 38
internal_value=0.00223888 -0.0440672 0.0633535 -0.0643187 -0.075678
internal_weight=23.3625 13.2916 10.0709 10.7411 7.57914
internal_count=142 87 55 76 59
is_linear=0
shrinkage=0.1


Tree=47
num_leaves=6
num_cat=0
split_feature=6 1 11 9 0
split_gain=8.32264 0.931107 0.00750679 0.00143014 0.00336598
threshold=1.4000000000000001 3.0100000000000002 2.5050000000000003 3.4900000000000007 13.255000000000001
decision_type=2 2 2 2 2
left_child=1 -1 -2 -4 -5
right_child=2 -3 3 4 -6
leaf_value=0.026845400661644609 -0.079493068104551229 0.084893414236939441 -0.069690769624563151 -0.075763334560887782 -0.070483822095140661
leaf_weight=5.1041818410158175 1.6970393508672694 6.0251519531011581 1.8596901744604108 2.268153503537178 2.5826463736593723
leaf_count=22 13 26 30 16 35
internal_value=0.00154251 0.0582712 -0.0735512 -0.0720485 -0.0729524
internal_weight=19.5369 11.1293 8.40753 6.71049 4.8508
internal_count=142 48 94 81 51
is_linear=0
shrinkage=0.1


Tree=48
num_leaves=6
num_cat=0
split_feature=12 6 0 6 9
split_gain=5.51316 1.41234 0.161226 0.0113386 0.000828471
threshold=719.00000000000011 2.6350000000000002 13.185 2.5050000000000003 3.7200000000000006
decision_type=2 2 2 2 2
left_child=2 -2 3 4 -1
right_child=1 -3 -4 -5 -6
leaf_value=-0.069862960029241056 -0.0043415664247791891 0.074165648763418579 -0.041376791433961849 -0.08070935379283084 -0.072693020506893968
leaf_weight=1.9871274642646328 3.6068231388926488 6.2837006151676178 1.9828663915395734 1.8741624951362608 2.1574454419314861
leaf_count=31 21 37 18 12 23
internal_value=-0.0043924 0.0455361 -0.0661074 -0.0742548 -0.0713361
internal_weight=17.8921 9.89052 8.0016 6.01874 4.14457
internal_count=142 58 84 66 54
is_linear=0
shrinkage=0.1


Tree=49
num_leaves=8
num_cat=0
split_feature=9 12 4 8 9 4 0
split_gain=5.80753 3.29776 1.35798 0.147164 0.0175385 0.0129487 0.00176009
threshold=3.4900000000000007 469.00000000000006 88.500000000000014 1.0800000000000003 4.5500000000000007 97.500000000000014 13.365000000000002
decision_type=2 2 2 2 2 2 2
left_child=5 -2 -3 -4 -5 -1 -6
right_child=1 2 3 4 6 -7 -8
leaf_value=0.075225997217367044 0.073466590835180437 0.014570132388164856 -0.04918657004345036 -0.08335897038889542 -0.075348362067498398 0.083989101961028267 -0.071489849181361712
leaf_weight=3.6732861325144794 2.4666181802749625 2.4017630368471137 2.7223555371165258 2.4214988350868225 1.9295894168317316 3.1170853450894356 3.0522585287690163
leaf_count=28 9 10 16 13 16 16 34
internal_value=0.00252391 -0.0322224 -0.0530323 -0.0690672 -0.0763777 0.0792487 -0.0729843
internal_weight=21.7845 14.9941 12.5275 10.1257 7.40335 6.79037 4.98185
internal_count=142 98 89 79 63 44 50
is_linear=0
shrinkage=0.1


Tree=50
num_leaves=6
num_cat=0
split_feature=6 9 11 9 0
split_gain=7.28662 1.13796 0.00645802 0.00114161 0.00271192
threshold=1.4000000000000001 5.4250000000000016 2.5050000000000003 3.4900000000000007 13.255000000000001
decision_type=2 2 2 2 2
left_child=1 -1 -2 -4 -5
right_child=2 -3 3 4 -6
leaf_value=0.014464976206347886 -0.078749418902276519 0.082126625218210195 -0.06930544913478022 -0.074975890936116202 -0.070008906112005331
leaf_weight=4.087577164173128 1.573197666555642 6.3426161706447601 1.6409313976764677 2.1160578653216362 2.2875613234937191
leaf_count=18 13 30 30 16 35
internal_value=0.00130804 0.0556101 -0.0730422 -0.0715568 -0.0723957
internal_weight=18.0479 10.4302 7.61775 6.04455 4.40362
internal_count=142 48 94 81 51
is_linear=0
shrinkage=0.1


Tree=51
num_leaves=7
num_cat=0
split_feature=12 6 1 5 6 9
split_gain=4.7523 1.51969 0.178845 0.0821359 0.00975064 0.000729161
threshold=719.00000000000011 2.5050000000000003 3.5000000000000004 2.8150000000000004 2.4200000000000004 3.7200000000000006
decision_type=2 2 2 2 2 2
left_child=2 -2 4 -3 5 -1
right_child=1 3 -4 -5 -6 -7
leaf_value=-0.069408158102646902 -0.014683211463157531 0.083390524433892027 -0.037196240758343595 0.060200856651725448 -0.080309889417170044 -0.072193250132709219
leaf_weight=1.5643638744950323 3.0257799178361875 3.1021884456276894 1.7616804875433443 3.0087204203009605 1.6174683347344396 2.3554221950471401
leaf_count=28 18 18 20 22 10 26
internal_value=-0.0047859 0.0432753 -0.0649481 0.071973 -0.0737773 -0.0710817
internal_weight=16.4356 9.13669 7.29893 6.11091 5.53725 3.91979
internal_count=142 58 84 40 64 54
is_linear=0
shrinkage=0.1


Tree=52
num_leaves=6
num_cat=0
split_feature=9 12 9 6 9
split_gain=5.16517 1.55942 0.419973 0.143208 0.00304689
threshold=3.9150000000000005 525.00000000000011 3.2750000000000004 2.9550000000000005 5.7250000000000005
decision_type=2 2 2 2 2
left_child=2 -2 -1 4 -3
right_child=1 3 -4 -5 -6
leaf_value=0.078262860177907109 0.01339760578865171 -0.076872294058218896 0.033237768066027469 -0.045576864497968918 -0.072051054702367209
leaf_weight=5.2933775857090968 3.5612206086516363 3.4448628574609756 3.4037177786231041 2.3460810445249081 2.1159509569406509
leaf_count=38 15 24 17 25 23
internal_value=0.00252517 -0.0415488 0.0606417 -0.0662963 -0.0750378
internal_weight=20.1652 11.4681 8.6971 7.90689 5.56081
internal_count=142 87 55 72 47
is_linear=0
shrinkage=0.1


Tree=53
num_leaves=7
num_cat=0
split_feature=6 9 9 11 11 3
split_gain=6.52443 0.380836 0.323134 0.00762804 0.000870281 0.000140945
threshold=1.2900000000000003 5.8650000000000011 5.6650000000000009 2.5050000000000003 3.0100000000000002 18.900000000000002
decision_type=2 2 2 2 2 2
left_child=2 3 -1 -2 -5 -6
right_child=1 -3 -4 4 5 -7
leaf_value=0.041342395465665482 -0.079356162234271554 -0.017374955336143316 0.079943416240831608 -0.073003945597603134 -0.07099513064525699 -0.069487550216066882
leaf_weight=4.1194471418857592 1.7256675660610179 1.4726074598729608 4.5793824940919876 2.3267244882881641 1.3815329298377039 1.1252322420477865
leaf_count=18 14 18 24 27 20 21
internal_value=0.00165796 -0.0633311 0.0616634 -0.0736488 -0.0716112 -0.0703184
internal_weight=16.7306 8.03176 8.69883 6.55916 4.83349 2.50677
internal_count=142 100 42 82 68 41
is_linear=0
shrinkage=0.1


Tree=54
num_leaves=7
num_cat=0
split_feature=6 0 0 12 0 4
split_gain=4.28267 3.00472 0.0387719 0.00202291 0.000384184 0.000214595
threshold=2.1800000000000002 13.010000000000002 13.715000000000002 702.50000000000011 13.010000000000002 96.500000000000014
decision_type=2 2 2 2 2 2
left_child=3 -2 -3 4 5 -1
right_child=1 2 -4 -5 -6 -7
leaf_value=-0.069140200192314302 -0.047136304499988901 0.082105000994150912 0.066561966305921288 -0.075029757333003821 -0.072050696615354168 -0.070999585422200098
leaf_weight=1.2043581567704689 2.9203779287636262 3.5359029397368431 2.9387374892830849 1.6451209634542463 1.6960234902799127 1.2807921171188352
leaf_count=24 21 19 26 14 20 18
internal_value=-0.00470198 0.0370694 0.0750503 -0.0720592 -0.0708904 -0.0700985
internal_weight=15.2213 9.39502 6.47464 5.82629 4.18117 2.48515
internal_count=142 66 45 76 62 42
is_linear=0
shrinkage=0.1


Tree=55
num_leaves=8
num_cat=0
split_feature=9 12 4 8 9 4 0
split_gain=4.60285 2.31588 0.79828 0.148499 0.0128866 0.0117492 0.0012154
threshold=3.4900000000000007 497.50000000000006 89.500000000000014 1.0800000000000003 4.4750000000000005 98.500000000000014 13.515000000000002
decision_type=2 2 2 2 2 2 2
left_child=5 -2 -3 -4 -5 -1 -6
right_child=1 2 3 4 6 -7 -8
leaf_value=0.073550695607299876 0.051846218441583304 -0.00018795110873907414 -0.044781400084581841 -0.081921765915241584 -0.073732910964547579 0.082701626301888487 -0.07020371661275103
leaf_weight=3.1427254900336292 2.725572280585765 2.3284760415554038 2.2347824908792955 1.8820472471415994 1.8334310390055182 2.5346655175089836 2.086111307144165
leaf_count=30 12 11 15 11 19 14 30
internal_value=0.00243765 -0.0301764 -0.0517453 -0.0666836 -0.0751204 0.0776361 -0.0718546
internal_weight=18.7678 13.0904 10.3648 8.03637 5.80159 5.67739 3.91954
internal_count=142 98 86 75 60 44 49
is_linear=0
shrinkage=0.1


Tree=56
num_leaves=6
num_cat=0
split_feature=11 2 12 9 0
split_gain=5.87787 0.596927 0.00148634 0.00243319 0.000210221
threshold=2.1900000000000004 2.3650000000000007 737.50000000000011 3.4900000000000007 13.485000000000001
decision_type=2 2 2 2 2
left_child=1 -1 3 -2 -4
right_child=2 -3 4 -5 -6
leaf_value=0.028714678710329889 -0.070615539415233644 0.079915723770600744 -0.070897928574821231 -0.075770014624821025 -0.069140190892425443
leaf_weight=4.7578380778431875 1.9479007348418247 4.3669251427054405 1.2751939557492735 1.7284590527415273 1.4587562792003153
leaf_count=24 36 23 18 12 29
internal_value=0.00166211 0.0532185 -0.0717258 -0.0730389 -0.0699601
internal_weight=15.5351 9.12476 6.41031 3.67636 2.73395
internal_count=142 47 95 48 47
is_linear=0
shrinkage=0.1


Tree=57
num_leaves=7
num_cat=0
split_feature=12 6 1 5 6 9
split_gain=3.75306 1.4281 0.163321 0.0738201 0.00776874 0.000473615
threshold=719.00000000000011 2.4200000000000004 3.5000000000000004 2.8550000000000004 2.5050000000000003 3.7200000000000006
decision_type=2 2 2 2 2 2
left_child=2 -2 4 -3 5 -1
right_child=1 3 -4 -5 -6 -7
leaf_value=-0.068809025916258731 -0.024559447311390287 0.079805547384887043 -0.035152443542646614 0.056285792285259387 -0.079261643001060922 -0.071282805726189891
leaf_weight=1.2790233045816424 2.3153290487825871 2.9916654005646706 1.5153406150639055 2.4090624004602432 1.3818707615137098 1.9598056674003599
leaf_count=29 16 21 20 21 9 26
internal_value=-0.00527153 0.0411459 -0.0636414 0.0693143 -0.0729842 -0.0703059
internal_weight=13.8521 7.71606 6.13604 5.40073 4.6207 3.23883
internal_count=142 58 84 42 64 55
is_linear=0
shrinkage=0.1


Tree=58
num_leaves=8
num_cat=0
split_feature=9 12 4 8 4 0 8
split_gain=4.0238 2.26108 0.849898 0.149324 0.00944637 0.00891431 7.51685e-05
threshold=3.4900000000000007 469.00000000000006 89.500000000000014 1.0800000000000003 100.50000000000001 13.255000000000001 1.8650000000000004
decision_type=2 2 2 2 2 2 2
left_child=4 -2 -3 -4 -1 -5 -7
right_child=1 2 3 5 -6 6 -8
leaf_value=0.072954401530502644 0.063932122462832128 0.0014840023722444381 -0.042911902404047741 -0.078337506644164001 0.081585049555231007 -0.070712964029233619 -0.069650212024273669
leaf_weight=2.9196370840072658 2.1706286966800681 2.5311901345849019 2.10261295363307 2.7318308055400848 2.2420106530189514 1.4173005670309069 1.2547379434108732
leaf_count=31 9 13 15 20 13 20 21
internal_value=0.00268267 -0.0286131 -0.0486258 -0.0655229 0.0767032 -0.0743207 -0.0702139
internal_weight=17.3699 12.2083 10.0377 7.50648 5.16165 5.40387 2.67204
internal_count=142 98 89 76 44 61 41
is_linear=0
shrinkage=0.1


Tree=59
num_leaves=6
num_cat=0
split_feature=6 10 11 9 0
split_gain=5.25873 1.05598 0.00452496 0.000667314 0.00166516
threshold=1.4000000000000001 0.80500000000000016 2.5050000000000003 3.8200000000000003 13.255000000000001
decision_type=2 2 2 2 2
left_child=1 -1 -2 -4 -5
right_child=2 -3 3 4 -6
leaf_value=0.078200103298549234 -0.07725094734807629 0.0055164523377643007 -0.068674007278162447 -0.073611902275633842 -0.068994618046283568
leaf_weight=5.425642363727091 1.2932507097721107 3.1648240983486176 1.3468921966850755 1.5850772559642794 1.5398102812469003
leaf_count=32 13 16 34 14 33
internal_value=0.00184068 0.0514226 -0.0720413 -0.0705347 -0.0713367
internal_weight=14.3555 8.59047 5.76503 4.47178 3.12489
internal_count=142 48 94 81 47
is_linear=0
shrinkage=0.1


Tree=60
num_leaves=6
num_cat=0
split_feature=6 0 7 12 10
split_gain=3.30506 2.31029 0.0297469 0.000959828 0.000299205
threshold=2.1800000000000002 13.010000000000002 0.30500000000000005 702.50000000000011 0.80500000000000016
decision_type=2 2 2 2 2
left_child=3 -2 -3 4 -1
right_child=1 2 -4 -5 -6
leaf_value=-0.069000748192322367 -0.043502580215926658 0.065323840035887801 0.080430366054283248 -0.073401777581149505 -0.07095453129310883
leaf_weight=1.2105973362922671 2.5766463465988636 2.9660967662930489 2.3254763782024384 1.3634786717593668 2.2233728468418121
leaf_count=26 21 27 18 14 36
internal_value=-0.00573734 0.0341507 0.0719627 -0.071157 -0.0702658
internal_weight=12.6657 7.86822 5.29157 4.79745 3.43397
internal_count=142 66 45 76 62
is_linear=0
shrinkage=0.1


Tree=61
num_leaves=7
num_cat=0
split_feature=9 12 4 9 9 0
split_gain=3.64252 1.13131 0.487467 0.301616 0.00347473 0.000260475
threshold=3.9150000000000005 512.50000000000011 91.500000000000014 3.2750000000000004 5.0200000000000005 13.295000000000002
decision_type=2 2 2 2 2 2
left_child=3 -2 -3 -1 -4 -6
right_child=1 2 4 -5 5 -7
leaf_value=0.07579564377741943 0.026853863366429823 -0.012777162187973375 -0.075449404673205073 0.033234579316158579 -0.071336763640464748 -0.069456204633789168
leaf_weight=3.9803332686424282 2.0651322454214078 1.836617227643728 2.3233154304325581 2.862507276237011 1.3251940906047823 1.658079460263252
leaf_count=38 10 11 19 17 17 30
internal_value=0.00273029 -0.038335 -0.0571814 0.0579914 -0.0725498 -0.0702916
internal_weight=16.0512 9.20834 7.14321 6.84284 5.30659 2.98327
internal_count=142 87 77 55 66 47
is_linear=0
shrinkage=0.1


Tree=62
num_leaves=6
num_cat=0
split_feature=6 10 11 9 0
split_gain=4.70298 0.958742 0.00349012 0.000556378 0.00137954
threshold=1.4000000000000001 0.80500000000000016 2.5050000000000003 3.8200000000000003 13.255000000000001
decision_type=2 2 2 2 2
left_child=1 -1 -2 -4 -5
right_child=2 -3 3 4 -6
leaf_value=0.077089016519024556 -0.07642002547243984 0.0058949624277994973 -0.06844955224460271 -0.073149802990913865 -0.068741633480898831
leaf_weight=5.0015151426196081 1.1940159406512982 3.0419918522238731 1.1899529937654731 1.4727738127112391 1.3706378787755964
leaf_count=32 13 16 34 14 33
internal_value=0.00217339 0.050164 -0.071671 -0.0702651 -0.0710249
internal_weight=13.2709 8.04351 5.22738 4.03336 2.84341
internal_count=142 48 94 81 47
is_linear=0
shrinkage=0.1


Tree=63
num_leaves=7
num_cat=0
split_feature=12 6 1 5 6 8
split_gain=2.97598 0.807085 0.144046 0.0647934 0.00538806 0.000192056
threshold=719.00000000000011 2.5050000000000003 3.5000000000000004 2.8550000000000004 2.5050000000000003 1.1450000000000002
decision_type=2 2 2 2 2 2
left_child=2 -2 4 -3 5 -1
right_child=1 3 -4 -5 -6 -7
leaf_value=-0.070708016257110942 -0.0085152167379583237 0.077556880165033093 -0.033956176671387887 0.052515713067753003 -0.077755069146973457 -0.068977841889228828
leaf_weight=1.1255130302160985 2.2622394226491451 2.1900202929973602 1.316384697332978 1.9563071504235265 1.2259402945637701 1.4921458177268503
leaf_count=18 18 19 20 21 9 37
internal_value=-0.00598223 0.039529 -0.0625061 0.065742 -0.072284 -0.0697218
internal_weight=11.5686 6.40857 5.15998 4.14633 3.8436 2.61766
internal_count=142 58 84 40 64 55
is_linear=0
shrinkage=0.1


Tree=64
num_leaves=8
num_cat=0
split_feature=9 12 4 8 9 4 0
split_gain=3.18843 1.54373 0.658337 0.133984 0.00617528 0.0060147 0.000306975
threshold=3.4900000000000007 497.50000000000006 89.500000000000014 1.0800000000000003 4.5500000000000007 100.50000000000001 13.715000000000002
decision_type=2 2 2 2 2 2 2
left_child=5 -2 -3 -4 -5 -1 -6
right_child=1 2 3 4 6 -7 -8
leaf_value=0.07197733791511661 0.045126768361473446 0.0013117671812128261 -0.040923327488206644 -0.077801650832726929 -0.07117025865039843 0.079479271912546334 -0.068979860932680048
leaf_weight=2.357598554342986 2.3343863487243643 2.100774370133875 1.8342625983059404 1.739813733845949 1.2855512686073782 1.9549174532294271 1.2737780995666979
leaf_count=31 12 11 15 13 20 13 27
internal_value=0.00291548 -0.026653 -0.0470025 -0.0635508 -0.0732049 0.0753781 -0.0700801
internal_weight=14.8811 10.5686 8.23418 6.13341 4.29914 4.31252 2.55933
internal_count=142 98 86 75 60 44 47
is_linear=0
shrinkage=0.1


Tree=65
num_leaves=6
num_cat=0
split_feature=10 8 0 6 9
split_gain=4.22557 0.516359 0.191213 0.00600456 0.000592301
threshold=0.89800000000000013 1.2550000000000001 13.515000000000002 1.5800000000000003 3.8200000000000003
decision_type=2 2 2 2 2
left_child=1 -1 3 -2 -5
right_child=2 -3 -4 4 -6
leaf_value=0.077743271606490333 -0.078225826292566594 0.021167718967556197 -0.030480418834873055 -0.068558008133348405 -0.071796518399361617
leaf_weight=4.0471632927656174 1.7634074762463567 2.6824672427028418 1.3524193186312912 0.93559590540826354 1.4247540049254892
leaf_count=25 11 31 29 28 18
internal_value=0.0021154 0.0551919 -0.06311 -0.0738111 -0.0705128
internal_weight=12.2058 6.72963 5.47618 4.12376 2.36035
internal_count=142 56 86 57 46
is_linear=0
shrinkage=0.1


Tree=66
num_leaves=7
num_cat=0
split_feature=6 0 7 12 0 7
split_gain=2.61948 1.84507 0.0248866 0.000580367 0.000229479 0.000106799
threshold=2.1800000000000002 13.010000000000002 0.30500000000000005 719.00000000000011 13.010000000000002 0.47500000000000003
decision_type=2 2 2 2 2 2
left_child=3 -2 -3 4 5 -1
right_child=1 2 -4 -5 -6 -7
leaf_value=-0.068283557309371745 -0.040823213397036567 0.063205513328587745 0.078358091146957923 -0.072472917591436189 -0.070791787298873032 -0.069892261330674707
leaf_weight=0.9363867454230792 2.288473978638649 2.4503622092306614 1.9436923936009405 1.0763484276831148 1.2293611429631708 0.7378804124891758
leaf_count=29 21 27 18 12 20 15
internal_value=-0.00626393 0.0319875 0.0699082 -0.0704895 -0.0697543 -0.0689925
internal_weight=10.6625 6.68253 4.39405 3.97998 2.90363 1.67427
internal_count=142 66 45 76 64 44
is_linear=0
shrinkage=0.1


Tree=67
num_leaves=7
num_cat=0
split_feature=9 1 9 3 4 6
split_gain=2.84594 1.19825 0.34574 0.342599 0.00489974 0.00151126
threshold=3.9150000000000005 1.5500000000000003 3.3650000000000007 22.250000000000004 100.50000000000001 2.7150000000000003
decision_type=2 2 2 2 2 2
left_child=2 -2 4 5 -1 -3
right_child=1 3 -4 -5 -6 -7
leaf_value=0.071239163497584954 0.036712405769260319 -0.073216309232553164 0.024309923874673421 -0.020315706692343703 0.07858138286972452 -0.069122843511410764
leaf_weight=1.9240313097834589 1.7570078335702417 3.0994394533336163 2.1719477251172066 1.8125448189675806 1.7227013297379015 1.2720409184694288
leaf_count=29 11 34 14 14 12 28
internal_value=0.00276625 -0.0361635 0.0558956 -0.0568691 0.0747076 -0.0720252
internal_weight=13.7597 7.94103 5.81868 6.18403 3.64673 4.37148
internal_count=142 87 55 76 41 62
is_linear=0
shrinkage=0.1


Tree=68
num_leaves=6
num_cat=0
split_feature=6 10 11 0 9
split_gain=3.91077 0.768984 0.00272222 0.000425305 0.000787512
threshold=1.4000000000000001 0.80500000000000016 2.5050000000000003 13.255000000000001 3.9150000000000005
decision_type=2 2 2 2 2
left_child=1 -1 -2 4 -4
right_child=2 -3 3 -5 -6
leaf_value=0.075374054092891399 -0.075690787715889357 0.0070716729020066614 -0.068558157877373571 -0.068359863614170388 -0.072420130580918271
leaf_weight=4.2924589887261391 1.0464729033410547 2.6759030744433403 0.95212922804057676 1.2201587874442337 1.1853372137993572
leaf_count=32 13 16 32 36 13
internal_value=0.00252596 0.0491454 -0.0712375 -0.0698495 -0.0706998
internal_weight=11.3725 6.96836 4.4041 3.35763 2.13747
internal_count=142 48 94 81 45
is_linear=0
shrinkage=0.1


Tree=69
num_leaves=7
num_cat=0
split_feature=12 3 1 2 6 8
split_gain=2.37657 0.618893 0.148353 0.0356771 0.00378138 0.0001353
threshold=719.00000000000011 18.900000000000002 3.6450000000000005 2.3850000000000002 2.5050000000000003 1.1450000000000002
decision_type=2 2 2 2 2 2
left_child=2 3 4 -2 5 -1
right_child=1 -3 -4 -5 -6 -7
leaf_value=-0.070084951876579829 0.054162581321949121 -0.0060353890593521269 -0.028337621626095967 0.074705219295860062 -0.076445296563061635 -0.068522777364141987
leaf_weight=1.0456143617630012 1.7445228099823 2.0008782856166363 1.0403713602572677 1.6403945162892339 1.0901058390736578 1.1802112665027378
leaf_count=20 21 18 18 19 9 37
internal_value=-0.00636521 0.0380553 -0.0612832 0.0641179 -0.0716199 -0.0692566
internal_weight=9.7421 5.3858 4.3563 3.38492 3.31593 2.22583
internal_count=142 58 84 40 66 57
is_linear=0
shrinkage=0.1


Tree=70
num_leaves=6
num_cat=0
split_feature=9 0 10 0 6
split_gain=2.51116 1.25184 0.319144 0.0312674 0.000729715
threshold=4.8500000000000005 12.830000000000002 0.92500000000000016 12.270000000000001 0.68500000000000016
decision_type=2 2 2 2 2
left_child=1 3 4 -1 -2
right_child=2 -3 -4 -5 -6
leaf_value=0.062867930339288183 -0.073913111990542998 -0.0083094254882854074 -0.017056072037292366 0.079475080730366965 -0.070901066854190106
leaf_weight=2.1477776505053043 1.6607726328074934 3.4400440901517868 1.5358337815850971 2.4011793285608292 1.5596900079399345
leaf_count=28 16 26 27 20 25
internal_value=0.00296138 0.0372106 -0.054566 0.0716341 -0.0724544
internal_weight=12.7453 7.989 4.7563 4.54896 3.22046
internal_count=142 74 68 48 41
is_linear=0
shrinkage=0.1


Tree=71
num_leaves=6
num_cat=0
split_feature=6 10 7 9 9
split_gain=3.46183 0.703836 0.00235164 0.000290344 0.000532253
threshold=1.4000000000000001 0.80500000000000016 0.46000000000000002 4.8500000000000005 3.8200000000000003
decision_type=2 2 2 2 2
left_child=1 -1 3 4 -2
right_child=2 -3 -4 -5 -6
leaf_value=0.074432046526954662 -0.068541773423874228 0.0069235949346263233 -0.075561492824164356 -0.068122110866977822 -0.071640618617702032
leaf_weight=3.8858059197664261 0.98864739388227585 2.5630465820431709 0.87003550119698037 0.86355923675000656 1.2615023255348203
leaf_count=32 36 16 12 29 17
internal_value=0.00232606 0.0476013 -0.0709652 -0.0696809 -0.0702791
internal_weight=10.4326 6.44885 3.98374 3.11371 2.25015
internal_count=142 48 94 82 53
is_linear=0
shrinkage=0.1


Tree=72
num_leaves=6
num_cat=0
split_feature=12 6 7 6 9
split_gain=2.14973 0.87099 0.152138 0.00177287 0.000220609
threshold=677.50000000000011 2.4200000000000004 0.28500000000000009 2.7150000000000003 3.7200000000000006
decision_type=2 2 2 2 2
left_child=3 -2 -3 4 -1
right_child=1 2 -4 -5 -6
leaf_value=-0.067959909035136518 -0.024362795405763193 0.036312757411577544 0.076180924669513581 -0.074693730302390501 -0.069974814458546697
leaf_weight=0.81048416346311647 1.9152559619396923 1.7502821721136572 2.1122811995446682 0.8144677411764859 1.6489161904901264
leaf_count=32 23 20 24 8 35
internal_value=-0.00590901 0.030775 0.0581151 -0.07065 -0.0693108
internal_weight=9.05169 5.77782 3.86256 3.27387 2.4594
internal_count=142 67 44 75 67
is_linear=0
shrinkage=0.1


Tree=73
num_leaves=7
num_cat=0
split_feature=9 0 4 9 4 0
split_gain=2.29536 1.17268 0.506836 0.00353815 0.00315642 0.000483138
threshold=3.4900000000000007 12.755000000000001 94.500000000000014 4.5500000000000007 100.50000000000001 13.255000000000001
decision_type=2 2 2 2 2 2
left_child=4 -2 -3 -4 -1 -5
right_child=1 2 3 5 -6 -7
leaf_value=0.07072811517081834 0.027302643098303866 -0.0095247175709842237 -0.076030006510745124 -0.071629383132418303 0.076915444052270507 -0.068524658604755692
leaf_weight=1.7181655541062366 2.8956524878740293 1.9402229394763706 1.6537795048207047 0.86020727641880546 1.585170157253742 1.2010027468204496
leaf_count=31 19 20 14 12 13 33
internal_value=0.00289976 -0.0244504 -0.0509497 -0.0725847 0.0736972 -0.0698204
internal_weight=11.8542 8.55086 5.65521 3.71499 3.30334 2.06121
internal_count=142 98 79 59 44 45
is_linear=0
shrinkage=0.1


Tree=74
num_leaves=6
num_cat=0
split_feature=6 0 9 6 9
split_gain=3.09075 0.296235 0.141847 0.00223889 0.000247599
threshold=1.2900000000000003 12.830000000000002 5.7250000000000005 1.7200000000000002 3.8200000000000003
decision_type=2 2 2 2 2
left_child=1 -1 3 -2 -5
right_child=2 -3 -4 4 -6
leaf_value=0.026830473570288189 -0.075602094111102594 0.074362769450091029 -0.028237091596905291 -0.068322715771589201 -0.070402968666441246
leaf_weight=2.3760528489947319 0.84264620020985637 2.9255770109593868 1.0057058837264774 0.91448079235851798 1.5284657273441551
leaf_count=17 12 25 21 36 31
internal_value=0.00199233 0.05306 -0.0610986 -0.0711574 -0.0696243
internal_weight=9.59293 5.30163 4.2913 3.28559 2.44295
internal_count=142 42 100 79 67
is_linear=0
shrinkage=0.1


Tree=75
num_leaves=7
num_cat=0
split_feature=6 0 7 12 0 7
split_gain=1.91538 1.33575 0.0197558 0.000208596 0.000168678 6.9073e-05
threshold=2.1800000000000002 13.010000000000002 0.30500000000000005 719.00000000000011 13.010000000000002 0.49000000000000005
decision_type=2 2 2 2 2 2
left_child=3 -2 -3 4 5 -1
right_child=1 2 -4 -5 -6 -7
leaf_value=-0.067776040206154325 -0.037388769992560376 0.060750011365707339 0.076105350159065832 -0.071070382205462315 -0.07019866743218954 -0.069306074289216313
leaf_weight=0.6913621528074152 1.8860921971499918 1.8819493465125563 1.5102524720132349 0.84476329386234272 0.97327978163957585 0.51473363861441612
leaf_count=31 21 27 18 12 20 13
internal_value=-0.00628063 0.0300756 0.0675864 -0.0697364 -0.0692193 -0.068429
internal_weight=8.30243 5.27829 3.3922 3.02414 2.17938 1.2061
internal_count=142 66 45 76 64 44
is_linear=0
shrinkage=0.1


Tree=76
num_leaves=7
num_cat=0
split_feature=9 12 4 5 0 12
split_gain=2.04214 1.05495 0.536436 0.0234494 0.0028308 0.00250952
threshold=3.4900000000000007 497.50000000000006 94.500000000000014 1.8150000000000002 13.255000000000001 613.50000000000011
decision_type=2 2 2 2 2 2
left_child=5 -2 -3 -4 -5 -1
right_child=1 2 3 4 -6 -7
leaf_value=0.070544369018861616 0.043442675603316966 -0.006140727168911668 -0.05567354568966492 -0.0753859869959351 -0.068632164106442128 0.076342661290481478
leaf_weight=1.5981233343482029 1.8196124210953692 2.3969087060540915 1.2976094763725998 1.3355803862214091 1.1592659205198286 1.4006193391978738
leaf_count=31 12 22 19 12 33 13
internal_value=0.00286219 -0.0234936 -0.0431722 -0.0665768 -0.0722477 0.0732526
internal_weight=11.0077 8.00898 6.18936 3.79246 2.49485 2.99874
internal_count=142 98 86 64 45 44
is_linear=0
shrinkage=0.1


Tree=77
num_leaves=6
num_cat=0
split_feature=6 10 7 12 0
split_gain=2.79715 0.570152 0.00381575 0.000198648 3.28045e-05
threshold=1.2350000000000001 0.83000000000000007 0.49000000000000005 787.50000000000011 13.515000000000002
decision_type=2 2 2 2 2
left_child=-1 -2 3 -3 -5
right_child=1 2 -4 4 -6
leaf_value=0.058383548743312558 0.019110396903859073 -0.070024301270194725 -0.076702464669404335 -0.068809429055968152 -0.067728490556542939
leaf_weight=4.4527934081852436 0.86741795018315304 1.5317558543756611 0.93829879350960244 0.5661840299144385 0.55692249163985252
leaf_count=38 14 38 10 17 25
internal_value=0.00231543 -0.0536548 -0.0712209 -0.0692836 -0.0682734
internal_weight=8.91337 4.46058 3.59316 2.65486 1.12311
internal_count=142 104 90 80 42
is_linear=0
shrinkage=0.1


Tree=78
num_leaves=5
num_cat=0
split_feature=12 3 6 9
split_gain=1.71675 0.672269 0.00117899 0.000150608
threshold=677.50000000000011 18.250000000000004 2.7150000000000003 3.7200000000000006
decision_type=2 2 2 2
left_child=2 -2 3 -1
right_child=1 -3 -4 -5
leaf_value=-0.067701507278935688 0.065976120074113173 -0.0085737757385887826 -0.073710269199024556 -0.069562461454696273
leaf_weight=0.63551682513207275 2.4406237136572599 2.3982288613915443 0.71167210116982449 1.3775407560169695
leaf_count=32 39 28 8 35
internal_value=-0.00672262 0.0290278 -0.0702118 -0.068975
internal_weight=7.56358 4.83885 2.72473 2.01306
internal_count=142 67 75 67
is_linear=0
shrinkage=0.1


Tree=79
num_leaves=8
num_cat=0
split_feature=9 0 12 0 6 0 12
split_gain=1.83026 0.902182 0.328921 0.0272473 0.00104455 0.000163435 3.92706e-06
threshold=4.8500000000000005 12.830000000000002 512.50000000000011 12.270000000000001 0.60500000000000009 13.135000000000002 1027.5000000000002
decision_type=2 2 2 2 2 2 2
left_child=1 3 -2 -1 -4 -6 -7
right_child=2 -3 4 -5 5 6 -8
leaf_value=0.059581825966915684 -0.003004547345068886 -0.0061840239265098379 -0.073010370019486279 0.077138823247843213 -0.070053962402059008 -0.068317465020505383 -0.067945541286368275
leaf_weight=1.6400859747081997 0.98797655105590854 2.8886449448764324 0.90902444720268283 1.9172696657478807 0.71730806306004513 0.55190632492303826 0.58462164551019669
leaf_count=28 7 26 9 20 12 18 22
internal_value=0.00301443 0.0353323 -0.0525254 0.0690443 -0.0702336 -0.0688721 -0.0681262
internal_weight=10.1968 6.446 3.75084 3.55736 2.76286 1.85384 1.13653
internal_count=142 74 68 48 61 52 40
is_linear=0
shrinkage=0.1


Tree=80
num_leaves=6
num_cat=0
split_feature=6 10 7 9 9
split_gain=2.52811 0.5923 0.0015151 0.000160683 0.000255935
threshold=1.4000000000000001 0.80500000000000016 0.46000000000000002 4.8500000000000005 3.8200000000000003
decision_type=2 2 2 2 2
left_child=1 -1 3 4 -2
right_child=2 -3 -4 -5 -6
leaf_value=0.072732248151071835 -0.068139055487288588 0.004105312728284116 -0.074374449870242665 -0.067698562913845822 -0.070626541395972339
leaf_weight=3.0772224739193916 0.71127556543797321 2.1268514096736908 0.70683724898844946 0.61434098612517107 0.98842334561049938
leaf_count=32 36 16 12 29 17
internal_value=0.00244494 0.0446851 -0.0703224 -0.0690846 -0.0695856
internal_weight=8.22495 5.20407 3.02088 2.31404 1.6997
internal_count=142 48 94 82 53
is_linear=0
shrinkage=0.1


Tree=81
num_leaves=6
num_cat=0
split_feature=6 0 7 12 6
split_gain=1.54116 1.05979 0.0186452 9.02648e-05 0.000127988
threshold=2.1800000000000002 13.010000000000002 0.30500000000000005 719.00000000000011 1.4000000000000001
decision_type=2 2 2 2 2
left_child=3 -2 -3 4 -1
right_child=1 2 -4 -5 -6
leaf_value=-0.068138502535694076 -0.034658527648206511 0.058532084289863645 0.074873156321551088 -0.070256624129079417 -0.069828007314747392
leaf_weight=0.9635844659060242 1.6673670113086698 1.5449516735970976 1.2740466967225073 0.7089500818401574 0.83862006105482578
leaf_count=38 21 27 18 12 26
internal_value=-0.00657264 0.0285382 0.0659174 -0.0693007 -0.0689247
internal_weight=6.99752 4.48637 2.819 2.51115 1.8022
internal_count=142 66 45 76 64
is_linear=0
shrinkage=0.1


Tree=82
num_leaves=8
num_cat=0
split_feature=9 4 0 1 4 9 0
split_gain=1.68577 0.868447 0.482985 0.0467051 0.00206692 0.00149914 0.000209913
threshold=3.4900000000000007 88.500000000000014 12.695000000000002 1.7050000000000003 102.50000000000001 4.5500000000000007 13.185
decision_type=2 2 2 2 2 2 2
left_child=4 -2 -3 -4 -1 -5 -7
right_child=1 2 3 5 -6 6 -8
leaf_value=0.070102220720505981 0.030431623268182134 0.0086786686342419164 -0.045649227178564039 -0.074192811627851449 0.075842192661549776 -0.070483148452802791 -0.068131831935874132
leaf_weight=1.418468810617924 2.1408638991415501 1.2032748106867073 0.96132154203951392 1.1117746084928515 1.1248077843338249 0.79649999551475026 0.72552917897701263
leaf_count=34 15 11 18 12 10 14 28
internal_value=0.00299474 -0.0225309 -0.0461608 -0.0645153 0.0726408 -0.0714013 -0.0693623
internal_weight=9.48254 6.93926 4.7984 3.59513 2.54328 2.6338 1.52203
internal_count=142 98 83 72 44 54 42
is_linear=0
shrinkage=0.1


Tree=83
num_leaves=6
num_cat=0
split_feature=10 6 1 6 12
split_gain=2.28023 0.316197 0.14631 0.0023478 8.82006e-05
threshold=0.89800000000000013 0.83500000000000008 2.0550000000000002 1.5800000000000003 737.50000000000011
decision_type=2 2 2 2 2
left_child=1 -1 3 -2 -5
right_child=2 -3 -4 4 -6
leaf_value=0.073150558871916613 -0.074881919050495557 0.017357543266740036 -0.022278091281198235 -0.069554498392773792 -0.068002009175303788
leaf_weight=2.5556292347609997 1.0613194312900311 1.685841856524348 0.80141487903892983 0.67554469499737002 0.79848496243357658
leaf_count=26 9 30 18 21 38
internal_value=0.0023217 0.0509747 -0.0595228 -0.0712957 -0.0687135
internal_weight=7.57824 4.24147 3.33676 2.53535 1.47403
internal_count=142 56 86 68 59
is_linear=0
shrinkage=0.1


Tree=84
num_leaves=8
num_cat=0
split_feature=12 3 1 7 6 0 9
split_gain=1.41018 0.383544 0.118588 0.0333106 0.00121852 5.38242e-05 3.49098e-05
threshold=719.00000000000011 18.900000000000002 3.8150000000000004 0.27500000000000008 2.5050000000000003 13.010000000000002 3.7200000000000006
decision_type=2 2 2 2 2 2 2
left_child=2 3 4 -2 5 6 -1
right_child=1 -3 -4 -5 -6 -7 -8
leaf_value=-0.067356422732361115 0.07337738060269744 -0.0059497538742006939 -0.021465934981036931 0.048574603728771364 -0.073378667379681392 -0.069312658510231703 -0.068614054479650452
leaf_weight=0.41632041614502735 1.1281932685524232 1.3807057812809942 0.64301171805709589 1.0412110388278959 0.80538441240787495 0.51002005953341722 0.46978140249848366
leaf_count=29 17 18 16 23 10 13 16
internal_value=-0.0067841 0.0352511 -0.0592463 0.0614732 -0.0702811 -0.0684942 -0.0680232
internal_weight=6.39463 3.55011 2.84452 2.1694 2.20151 1.39612 0.886102
internal_count=142 58 84 40 68 58 45
is_linear=0
shrinkage=0.1


Tree=85
num_leaves=6
num_cat=0
split_feature=9 6 12 0 12
split_gain=1.48227 0.774758 1.5824 0.0015767 0.00112887
threshold=3.4900000000000007 1.2350000000000001 719.00000000000011 13.185 613.50000000000011
decision_type=2 2 2 2 2
left_child=4 -2 -3 -4 -1
right_child=1 2 3 -5 -6
leaf_value=0.069807561126965012 -0.071079678817024525 0.051956557721969693 -0.074346347309472427 -0.068312760063671804 0.07424031217475166
leaf_weight=1.1910321693867447 2.1196819096803665 2.6080916151404381 0.79935366101562955 0.9452865868806839 1.1098706815391777
leaf_count=31 35 19 8 36 13
internal_value=0.00300652 -0.0215009 0.00264278 -0.0710772 0.0719458
internal_weight=8.77332 6.47241 4.35273 1.74464 2.3009
internal_count=142 98 63 44 44
is_linear=0
shrinkage=0.1


Tree=86
num_leaves=6
num_cat=0
split_feature=6 10 7 9 9
split_gain=2.10068 0.482697 0.00126404 0.000106024 0.00015109
threshold=1.4000000000000001 0.80500000000000016 0.46000000000000002 4.8500000000000005 3.8200000000000003
decision_type=2 2 2 2 2
left_child=1 -1 3 4 -2
right_child=2 -3 -4 -5 -6
leaf_value=0.071757179865865522 -0.06796952387722642 0.0050349180888966134 -0.073933305112271683 -0.06750185310693417 -0.070063455112112247
leaf_weight=2.5907464753836393 0.58461910299956821 1.8646295778453348 0.62878079619258631 0.49269046448171128 0.83933480642735958
leaf_count=32 36 16 12 29 17
internal_value=0.00242895 0.0438331 -0.0700427 -0.0687663 -0.0692038
internal_weight=7.0008 4.45538 2.54543 1.91664 1.42395
internal_count=142 48 94 82 53
is_linear=0
shrinkage=0.1


Tree=87
num_leaves=7
num_cat=0
split_feature=12 11 0 6 0 7
split_gain=1.24419 0.526211 0.167928 0.000529683 9.01255e-05 3.00758e-05
threshold=677.50000000000011 2.7100000000000004 13.135000000000002 2.8250000000000006 13.010000000000002 0.49000000000000005
decision_type=2 2 2 2 2 2
left_child=3 -2 -3 4 5 -1
right_child=1 2 -4 -5 -6 -7
leaf_value=-0.06738457466956381 -0.035230244931430857 0.02085654383760506 0.070483815854330362 -0.072182562491180574 -0.069428063114672575 -0.068588188605027009
leaf_weight=0.51541111618280433 0.99696828052401576 1.1851367317140105 1.6055613253265617 0.54195414669811715 0.65063696727156639 0.34763498231768608
leaf_count=36 19 11 37 7 19 13
internal_value=-0.00686358 0.0271303 0.0494084 -0.0694999 -0.0685394 -0.0678694
internal_weight=5.8433 3.78767 2.7907 2.05564 1.51368 0.863046
internal_count=142 67 48 75 68 49
is_linear=0
shrinkage=0.1


Tree=88
num_leaves=8
num_cat=0
split_feature=9 4 0 2 4 9 5
split_gain=1.34475 0.714319 0.401959 0.0412966 0.00113895 0.000906955 4.51986e-05
threshold=3.4900000000000007 88.500000000000014 12.695000000000002 2.3350000000000004 102.50000000000001 4.5500000000000007 2.2150000000000003
decision_type=2 2 2 2 2 2 2
left_child=4 -2 -3 -4 -1 -5 -7
right_child=1 2 3 5 -6 6 -8
leaf_value=0.069518582975797924 0.029611381115584551 0.0087225268842578869 -0.044654603989302565 -0.073128241183858772 0.074191246341613656 -0.069559972098181266 -0.068347451165170964
leaf_weight=1.1485597845166924 1.8745886757969854 1.0347055979073045 0.83800561539828811 0.93718105182051692 0.95570324175059784 0.6719051059335468 0.56674371566623449
leaf_count=34 15 11 21 11 10 17 23
internal_value=0.00297196 -0.0214235 -0.045054 -0.0635165 0.0716408 -0.0707811 -0.0690052
internal_weight=8.02739 5.92313 4.04854 3.01384 2.10426 2.17583 1.23865
internal_count=142 98 83 72 44 51 40
is_linear=0
shrinkage=0.1


Tree=89
num_leaves=7
num_cat=0
split_feature=6 10 7 12 9 0
split_gain=1.8618 0.446656 0.000905264 8.12377e-05 0.000111265 1.08781e-05
threshold=1.4000000000000001 0.80500000000000016 0.46000000000000002 787.50000000000011 3.9150000000000005 13.600000000000001
decision_type=2 2 2 2 2 2
left_child=1 -1 3 4 -2 -5
right_child=2 -3 -4 5 -6 -7
leaf_value=0.071253982591165194 -0.068115904782455133 0.0047025550745407509 -0.073175763198725957 -0.068123914154911924 -0.070192433478626762 -0.067327381423979413
leaf_weight=2.3533778116106987 0.52148413658142112 1.7646318003535268 0.57187127135694016 0.35555909946560849 0.5107766967266798 0.33112328592687845
leaf_count=32 32 16 12 17 9 24
internal_value=0.0025354 0.0427357 -0.0697293 -0.0685827 -0.0691434 -0.0677398
internal_weight=6.40882 4.11801 2.29081 1.71894 1.03226 0.686682
internal_count=142 48 94 82 41 41
is_linear=0
shrinkage=0.1


Tree=90
num_leaves=6
num_cat=0
split_feature=6 0 7 12 10
split_gain=1.10934 0.779615 0.0138368 3.74459e-05 7.26122e-05
threshold=2.1800000000000002 13.010000000000002 0.30500000000000005 737.50000000000011 0.83000000000000007
decision_type=2 2 2 2 2
left_child=3 -2 -3 4 -1
right_child=1 2 -4 -5 -6
leaf_value=-0.067490557949244509 -0.033020793664669444 0.056976157337284589 0.073245137044544439 -0.069504334607315824 -0.069010068022523227
leaf_weight=0.47688647732138612 1.343421424739063 1.1302277855575087 0.9726740289479493 0.4951950181275605 0.92348927725106478
leaf_count=30 21 27 18 10 36
internal_value=-0.00731103 0.0264859 0.0645012 -0.0687569 -0.0684926
internal_weight=5.34189 3.44632 2.1029 1.89557 1.40038
internal_count=142 66 45 76 66
is_linear=0
shrinkage=0.1


Tree=91
num_leaves=6
num_cat=0
split_feature=9 6 12 0 4
split_gain=1.21186 0.658931 1.27106 0.00102469 0.000915351
threshold=3.4900000000000007 1.2350000000000001 719.00000000000011 13.135000000000002 102.50000000000001
decision_type=2 2 2 2 2
left_child=4 -2 -3 -4 -1
right_child=1 2 3 -5 -6
leaf_value=0.069331940805771347 -0.070492621157548854 0.04960691818984627 -0.0733223408558311 -0.067967081816935171 0.073706330728861
leaf_weight=1.0293502360582349 1.7996370485052464 2.2822915576398377 0.6643111892044542 0.77312697656452656 0.89365486055612553
leaf_count=34 35 19 7 37 10
internal_value=0.00300108 -0.0208176 0.00321567 -0.070442 0.0713648
internal_weight=7.44237 5.51937 3.71973 1.43744 1.92301
internal_count=142 98 63 44 44
is_linear=0
shrinkage=0.1


Tree=92
num_leaves=8
num_cat=0
split_feature=6 10 11 6 12 9 0
split_gain=1.71964 0.819745 0.00160935 0.000204254 6.64704e-05 9.13438e-05 1.12741e-05
threshold=0.95500000000000018 0.78500000000000014 2.0300000000000002 1.5800000000000003 787.50000000000011 4.285000000000001 13.485000000000001
decision_type=2 2 2 2 2 2 2
left_child=-1 -2 -3 -4 5 -5 -6
right_child=1 2 3 4 6 -7 -8
leaf_value=0.063591432848941171 0.052961349121855898 -0.074952174144293296 -0.070868912745551876 -0.067990529225762916 -0.06809073978326706 -0.069944738659565062 -0.067264901738128782
leaf_weight=2.6061328742653131 0.67910397984087501 0.57321318984031711 0.44105666875839267 0.4751799516379831 0.32484703417867422 0.48160950094461441 0.33659068681299686
leaf_count=32 13 4 7 34 16 9 27
internal_value=0.00282534 -0.0449958 -0.0702658 -0.0689613 -0.0684413 -0.0689742 -0.0676705
internal_weight=5.91773 3.3116 2.6325 2.05928 1.61823 0.956789 0.661438
internal_count=142 110 97 93 86 43 43
is_linear=0
shrinkage=0.1


Tree=93
num_leaves=6
num_cat=0
split_feature=12 3 6 0 7
split_gain=0.994871 0.403381 0.000327699 5.5214e-05 2.10305e-05
threshold=677.50000000000011 18.250000000000004 2.8250000000000006 13.010000000000002 0.51000000000000012
decision_type=2 2 2 2 2
left_child=2 -2 3 4 -1
right_child=1 -3 -4 -5 -6
leaf_value=-0.067238749326346575 0.06365217450272391 -0.0081149168779353319 -0.071373903940142952 -0.069019548783466056 -0.068381542516723667
leaf_weight=0.42943243589252211 1.4920222088694575 1.6485182726755736 0.46725389920175064 0.53866590745747089 0.25764841493219137
leaf_count=38 39 28 7 19 11
internal_value=-0.00732967 0.0259805 -0.0691205 -0.0682616 -0.0676673
internal_weight=4.83354 3.14054 1.693 1.22575 0.687081
internal_count=142 67 75 68 49
is_linear=0
shrinkage=0.1


Tree=94
num_leaves=7
num_cat=0
split_feature=9 6 12 12 9 9
split_gain=1.08107 0.516146 1.1396 0.202463 0.00061916 0.000367665
threshold=3.9150000000000005 1.4000000000000001 677.50000000000011 719.00000000000011 3.2750000000000004 4.5500000000000007
decision_type=2 2 2 2 2 2
left_child=3 -2 -3 4 -1 -4
right_child=1 2 5 -5 -6 -7
leaf_value=0.069319237550290833 -0.070013551476772989 0.076613876518909912 -0.071239127146991113 0.015665649771529077 0.073075303790032395 -0.067553665653901349
leaf_weight=0.96840503439307235 1.8070334820076825 1.05407190322876 0.55385458562523104 1.0539128296077249 0.80259969271719456 0.52944583352655172
leaf_count=34 39 7 9 11 10 32
internal_value=0.0031476 -0.0306719 0.00258935 0.0503695 0.0710214 -0.0694379
internal_weight=6.76932 3.94441 2.13737 2.82492 1.771 1.0833
internal_count=142 87 48 55 44 41
is_linear=0
shrinkage=0.1


Tree=95
num_leaves=6
num_cat=0
split_feature=10 8 9 6 7
split_gain=1.49819 0.367868 0.0225616 0.000558063 2.81066e-05
threshold=0.91500000000000015 1.3250000000000004 5.1500000000000012 1.3400000000000003 0.26500000000000007
decision_type=2 2 2 2 2
left_child=1 -1 3 -2 -5
right_child=2 -3 -4 4 -6
leaf_value=0.070734113199878587 -0.072382006431871496 0.001440808964066142 -0.045276254410935184 -0.069046922488433971 -0.06798707871298211
leaf_weight=2.0451729092746977 0.54669957607984576 1.2250624829903243 0.49232289753854264 0.42895995965227462 0.60051622893661261
leaf_count=28 6 31 24 15 38
internal_value=0.00264503 0.0447762 -0.063963 -0.0697999 -0.0684287
internal_weight=5.33873 3.27024 2.0685 1.57618 1.02948
internal_count=142 59 83 59 53
is_linear=0
shrinkage=0.1


Tree=96
num_leaves=6
num_cat=0
split_feature=6 0 7 12 10
split_gain=0.895449 0.622731 0.0121904 2.68704e-05 3.72828e-05
threshold=2.1800000000000002 13.010000000000002 0.30500000000000005 737.50000000000011 0.83000000000000007
decision_type=2 2 2 2 2
left_child=3 -2 -3 4 -1
right_child=1 2 -4 -5 -6
leaf_value=-0.067324853183128128 -0.030949547659865153 0.055728203964505743 0.072498851444686055 -0.0690603553619734 -0.068542293296196585
leaf_weight=0.38093566894531228 1.1604595156386497 0.91916040889918782 0.82018930464982986 0.42769509460777033 0.74055617488920689
leaf_count=30 21 27 18 10 36
internal_value=-0.00700661 0.0257845 0.0636364 -0.068386 -0.0681288
internal_weight=4.449 2.89981 1.73935 1.54919 1.12149
internal_count=142 66 45 76 66
is_linear=0
shrinkage=0.1


Tree=97
num_leaves=8
num_cat=0
split_feature=9 4 0 2 4 9 12
split_gain=0.989724 0.539971 0.292224 0.0397777 0.000548026 0.000474888 8.15533e-05
threshold=3.4900000000000007 88.500000000000014 12.695000000000002 2.3050000000000002 102.50000000000001 4.5500000000000007 645.00000000000011
decision_type=2 2 2 2 2 2 2
left_child=4 -2 -3 -4 -1 -5 -7
right_child=1 2 3 5 -6 6 -8
leaf_value=0.068990387459518979 0.029181377021935781 0.0076396392145434873 -0.038888162269895651 -0.071715735398366856 0.072695099917583314 -0.069354771895524359 -0.06749771206061915
leaf_weight=0.83894288726150967 1.4729039445519445 0.79952268488705192 0.54076506663113866 0.80107965134084202 0.76193517819046974 0.46344931609928608 0.48285856936126947
leaf_count=34 15 11 17 12 10 11 32
internal_value=0.00310701 -0.0206387 -0.0444041 -0.0625892 0.0707536 -0.069924 -0.0684072
internal_weight=6.16146 4.56058 3.08768 2.28815 1.60088 1.74739 0.946308
internal_count=142 98 83 72 44 55 43
is_linear=0
shrinkage=0.1


Tree=98
num_leaves=7
num_cat=0
split_feature=6 9 6 12 9 0
split_gain=1.34574 0.339577 0.000602675 3.70452e-05 5.7764e-05 6.98139e-06
threshold=1.4000000000000001 5.1500000000000012 1.6050000000000002 787.50000000000011 3.9150000000000005 13.485000000000001
decision_type=2 2 2 2 2 2
left_child=1 -1 -2 4 -4 -5
right_child=2 -3 3 5 -6 -7
leaf_value=0.0039134713700453563 -0.07294362892981647 0.07006132633577182 -0.067689766499968523 -0.067873339617264258 -0.069348263132212914 -0.067152567435711449
leaf_weight=1.3779262341558935 0.32520066574215878 1.7768388129770754 0.39474299456924178 0.26648556860163808 0.44872990343719721 0.27108746627345681
leaf_count=16 6 32 35 16 10 27
internal_value=0.00247452 0.0411695 -0.0690706 -0.0681586 -0.0685721 -0.0675099
internal_weight=4.86101 3.15477 1.70625 1.38105 0.843473 0.537573
internal_count=142 48 94 88 45 43
is_linear=0
shrinkage=0.1


Tree=99
num_leaves=7
num_cat=0
split_feature=12 5 1 6 0 7
split_gain=0.788158 0.409051 0.097366 0.000190591 3.0528e-05 1.15711e-05
threshold=677.50000000000011 2.4050000000000007 1.7900000000000003 2.8250000000000006 13.010000000000002 0.51000000000000012
decision_type=2 2 2 2 2 2
left_child=3 -2 -3 4 5 -1
right_child=1 2 -4 -5 -6 -7
leaf_value=-0.067119871610466952 -0.036189877153609405 0.027021251092779381 0.072499594149389335 -0.070584410907820042 -0.068602010731946925 -0.068068648585735053
leaf_weight=0.33589392667636253 0.78745921608060632 0.94652085565030553 0.93656465969979763 0.39483813475817442 0.44164572190493345 0.2082300828769803
leaf_count=38 22 26 19 7 19 11
internal_value=-0.0073825 0.0243316 0.0496402 -0.0687279 -0.0679843 -0.067483
internal_weight=4.05115 2.67054 1.88309 1.38061 0.98577 0.544124
internal_count=142 67 45 75 68 49
is_linear=0
shrinkage=0.1


Tree=100
num_leaves=6
num_cat=0
split_feature=9 6 12 0 4
split_gain=0.88996 0.48882 0.928903 0.000536142 0.00040256
threshold=3.4900000000000007 1.2350000000000001 719.00000000000011 13.135000000000002 102.50000000000001
decision_type=2 2 2 2 2
left_child=4 -2 -3 -4 -1
right_child=1 2 3 -5 -6
leaf_value=0.068868131320225415 -0.06955330916968562 0.047208827045781734 -0.072049487343001456 -0.06760650491624047 0.072187103796570493
leaf_weight=0.76027047447860219 1.3535209358669815 1.8061459977179768 0.53783403337001778 0.54867635294795036 0.70369984768331051
leaf_count=34 35 19 7 37 10
internal_value=0.00322862 -0.0199522 0.00325696 -0.0698058 0.0704635
internal_weight=5.71015 4.24618 2.89266 1.08651 1.46397
internal_count=142 98 63 44 44
is_linear=0
shrinkage=0.1


Tree=101
num_leaves=8
num_cat=0
split_feature=6 10 11 6 12 12 0
split_gain=1.23423 0.59846 0.000731667 8.00605e-05 2.84047e-05 3.59992e-05 6.97969e-06
threshold=0.95500000000000018 0.78500000000000014 2.0300000000000002 1.5800000000000003 787.50000000000011 627.50000000000011 13.365000000000002
decision_type=2 2 2 2 2 2 2
left_child=-1 -2 -3 -4 5 -5 -6
right_child=1 2 3 4 6 -7 -8
leaf_value=0.061516571258812859 0.050707885317818328 -0.07298953646239599 -0.069815381588679171 -0.067705452334771959 -0.067866909420410126 -0.069136026119915039 -0.067101309766595493
leaf_weight=1.9799395976588128 0.52446915488690171 0.45895083993673313 0.32715799286961544 0.33710286952555157 0.2208586074411869 0.36784765357151628 0.25839420966804028
leaf_count=32 13 4 7 31 14 12 29
internal_value=0.00256368 -0.0442233 -0.0694926 -0.0684307 -0.0680481 -0.0684519 -0.0674541
internal_weight=4.47472 2.49478 1.97031 1.51136 1.1842 0.704951 0.479253
internal_count=142 110 97 93 86 43 43
is_linear=0
shrinkage=0.1


Tree=102
num_leaves=6
num_cat=0
split_feature=6 0 7 12 10
split_gain=0.700787 0.506453 0.00961697 1.16657e-05 2.25918e-05
threshold=2.1800000000000002 13.010000000000002 0.30500000000000005 737.50000000000011 0.83000000000000007
decision_type=2 2 2 2 2
left_child=3 -2 -3 4 -1
right_child=1 2 -4 -5 -6
leaf_value=-0.067192463905004787 -0.030222031138217927 0.05479878327716018 0.071302092834314615 -0.068581664848821985 -0.068251809016617135
leaf_weight=0.30154804280027769 1.0081437379121783 0.75976033229380824 0.65969015844166279 0.34667495265603065 0.60564588848501444
leaf_count=30 21 27 18 10 36
internal_value=-0.00738039 0.0239756 0.0624687 -0.0680882 -0.0678997
internal_weight=3.68146 2.42759 1.41945 1.25387 0.907194
internal_count=142 66 45 76 66
is_linear=0
shrinkage=0.1


Tree=103
num_leaves=8
num_cat=0
split_feature=9 4 0 2 4 0 12
split_gain=0.801735 0.440329 0.236914 0.0342553 0.00027254 0.000254743 2.68407e-05
threshold=3.4900000000000007 88.500000000000014 12.695000000000002 2.3050000000000002 102.50000000000001 13.135000000000002 737.50000000000011
decision_type=2 2 2 2 2 2 2
left_child=4 -2 -3 -4 -1 -5 -7
right_child=1 2 3 5 -6 6 -8
leaf_value=0.068839542684733315 0.028327041570695911 0.0067919218895685744 -0.038190566557515911 -0.070632778071642491 0.071704303114451043 -0.068597400653890792 -0.067351321291908045
leaf_weight=0.68728016316890694 1.2743480969220402 0.68839130923152003 0.46821966907009471 0.74160486832261063 0.64257412310689688 0.34047794062644243 0.3511377745307982
leaf_count=34 15 11 17 14 10 12 29
internal_value=0.00325233 -0.0197958 -0.0434751 -0.0616736 0.0702238 -0.0693453 -0.0679648
internal_weight=5.19403 3.86418 2.58983 1.90144 1.32985 1.43322 0.691616
internal_count=142 98 83 72 44 55 41
is_linear=0
shrinkage=0.1


Tree=104
num_leaves=6
num_cat=0
split_feature=10 8 0 11 2
split_gain=1.08306 0.167465 0.0975957 0.000286915 2.91048e-05
threshold=0.89800000000000013 1.2550000000000001 13.600000000000001 2.1900000000000004 2.4050000000000007
decision_type=2 2 2 2 2
left_child=1 -1 3 -2 -5
right_child=2 -3 -4 4 -6
leaf_value=0.070067018579226953 -0.071598369435022111 0.015109584487716913 -0.013165619397304594 -0.067884996931366792 -0.069021009564370961
leaf_weight=1.3620347781106832 0.44492632709443547 0.93513822136446823 0.39766731299459923 0.41754053207114339 0.49041666556149721
leaf_count=25 6 31 28 31 21
internal_value=0.00253919 0.0476948 -0.0567166 -0.069518 -0.0684986
internal_weight=4.04772 2.29717 1.75055 1.35288 0.907957
internal_count=142 56 86 58 52
is_linear=0
shrinkage=0.1


Tree=105
num_leaves=7
num_cat=0
split_feature=12 3 12 6 0 7
split_gain=0.636415 0.226435 0.101588 0.00012123 2.21213e-05 6.68036e-06
threshold=755.00000000000011 18.900000000000002 677.50000000000011 2.9850000000000008 13.010000000000002 0.51000000000000012
decision_type=2 2 2 2 2 2
left_child=2 -2 3 4 5 -1
right_child=1 -3 -4 -5 -6 -7
leaf_value=-0.067027243721562282 0.063229995889225538 -0.011807138570520341 -0.015212739023692697 -0.070202445169506897 -0.068366063203553248 -0.067834041120650224
leaf_weight=0.26338674267753981 1.0750490045174954 0.64249504730105389 0.52347635710611928 0.29320808965712786 0.41203452367335558 0.16814853623509407
leaf_count=38 38 13 16 6 20 11
internal_value=-0.00751601 0.0351603 -0.0516649 -0.0684508 -0.067842 -0.0673416
internal_weight=3.3778 1.71754 1.66025 1.13678 0.84357 0.431535
internal_count=142 51 91 75 69 49
is_linear=0
shrinkage=0.1


Tree=106
num_leaves=6
num_cat=0
split_feature=9 6 12 0 4
split_gain=0.705572 0.413249 0.7509 0.000286087 0.000191825
threshold=3.4900000000000007 1.2350000000000001 719.00000000000011 13.135000000000002 102.50000000000001
decision_type=2 2 2 2 2
left_child=4 -2 -3 -4 -1
right_child=1 2 3 -5 -6
leaf_value=0.068599288357196947 -0.069068410477459694 0.045448946594965581 -0.070992982411798897 -0.067414283148845552 0.071133966366504001
leaf_weight=0.62073365692049243 1.1255619316361847 1.580375596880913 0.45485448464751232 0.43895602133125067 0.57531072851270437
leaf_count=34 35 19 7 37 10
internal_value=0.00327543 -0.018834 0.00401871 -0.0692355 0.0698185
internal_weight=4.79579 3.59975 2.47419 0.893811 1.19604
internal_count=142 98 63 44 44
is_linear=0
shrinkage=0.1


Tree=107
num_leaves=6
num_cat=0
split_feature=6 10 11 12 9
split_gain=1.01731 0.255503 0.0003177 1.81873e-05 2.195e-05
threshold=1.4000000000000001 0.80500000000000016 2.2850000000000006 1027.5000000000002 3.8200000000000003
decision_type=2 2 2 2 2
left_child=1 -1 -2 4 -4
right_child=2 -3 3 -5 -6
leaf_value=0.069339935383825796 -0.071770610970444557 0.003953549620236905 -0.067419660447824034 -0.067088283192659526 -0.068494835037375579
leaf_weight=1.3705034302547581 0.26127130514942098 1.059704817831516 0.30279491865076102 0.23102289391681552 0.50917779607698321
leaf_count=32 6 16 39 29 20
internal_value=0.00259188 0.0408279 -0.0686523 -0.0678711 -0.0680939
internal_weight=3.73448 2.43021 1.30427 1.043 0.811973
internal_count=142 48 94 88 59
is_linear=0
shrinkage=0.1


Tree=108
num_leaves=6
num_cat=0
split_feature=5 0 12 1 8
split_gain=0.569567 0.334547 0.0201638 0.00179214 7.73785e-05
threshold=2.3350000000000004 13.010000000000002 875.00000000000011 1.6450000000000002 1.4550000000000003
decision_type=2 2 2 2 2
left_child=3 -2 -3 -1 -5
right_child=1 2 -4 4 -6
leaf_value=-0.05903056131506134 -0.026023796651494197 0.041506526207949083 0.067943592239882014 -0.067705886212357458 -0.069698694442534528
leaf_weight=0.26508283638395391 0.80287877935916219 0.48136126808822133 0.72006611991673708 0.49004031112417579 0.32345346082001925
leaf_count=20 23 11 36 37 15
internal_value=-0.00757775 0.0239532 0.0573514 -0.0661714 -0.0684982
internal_weight=3.08288 2.00431 1.20143 1.07858 0.813494
internal_count=142 70 47 72 52
is_linear=0
shrinkage=0.1


Tree=109
num_leaves=8
num_cat=0
split_feature=9 4 0 8 0 4 8
split_gain=0.641511 0.36976 0.19554 0.0282791 0.00022892 0.000148594 7.53391e-07
threshold=3.4900000000000007 88.500000000000014 12.695000000000002 1.2550000000000001 13.255000000000001 102.50000000000001 1.7950000000000002
decision_type=2 2 2 2 2 2 2
left_child=5 -2 -3 -4 -5 -1 -6
right_child=1 2 3 4 6 -7 -8
leaf_value=0.068483629617398234 0.028294126637312518 0.0066683827724413162 -0.039485031468262405 -0.070237214266806208 -0.067468885444682727 0.070817087953646427 -0.067208650325822766
leaf_weight=0.55606376891955711 1.1056363210082056 0.58718910161405835 0.4473927654325961 0.70489160064607836 0.22544374689459801 0.53590427991002798 0.21962093282490969
leaf_count=34 15 11 16 16 17 10 23
internal_value=0.00321424 -0.0188279 -0.0426773 -0.0608169 -0.0691161 0.0696288 -0.0673405
internal_weight=4.38214 3.29017 2.18454 1.59735 1.14996 1.09197 0.445065
internal_count=142 98 83 72 56 44 40
is_linear=0
shrinkage=0.1


Tree=110
num_leaves=6
num_cat=0
split_feature=6 10 11 12 9
split_gain=0.904726 0.327946 0.000229603 1.36565e-05 1.61194e-05
threshold=1.4000000000000001 0.83000000000000007 2.2850000000000006 1027.5000000000002 3.8200000000000003
decision_type=2 2 2 2 2
left_child=1 -1 -2 4 -4
right_child=2 -3 3 -5 -6
leaf_value=0.069311828638311479 -0.071250865068280253 -0.0098425224725752266 -0.067350316175909655 -0.067043279108117929 -0.068324396448947611
leaf_weight=1.4102348349988467 0.23646795703098156 0.83236233517527569 0.26878928998485208 0.20553693873807788 0.46170737640932202
leaf_count=34 6 14 39 29 20
internal_value=0.00271619 0.0399329 -0.0684667 -0.0677634 -0.067966
internal_weight=3.4151 2.2426 1.1725 0.936034 0.730497
internal_count=142 48 94 88 59
is_linear=0
shrinkage=0.1


Tree=111
num_leaves=7
num_cat=0
split_feature=12 5 9 6 0 7
split_gain=0.513643 0.270961 0.0965184 7.6086e-05 1.35802e-05 4.49207e-06
threshold=677.50000000000011 2.4050000000000007 4.285000000000001 2.9850000000000008 13.010000000000002 0.52500000000000013
decision_type=2 2 2 2 2 2
left_child=3 -2 -3 4 5 -1
right_child=1 2 -4 -5 -6 -7
leaf_value=-0.066951237498966074 -0.036101404839346436 0.014145588288536744 0.069471290447934306 -0.069709401662884765 -0.068125921850427359 -0.067688181112228407
leaf_weight=0.21056361170485649 0.55851590074598778 0.52949438244104363 0.77957358304411173 0.25291821267455816 0.34645618125796318 0.1362264056224376
leaf_count=39 22 9 36 6 20 10
internal_value=-0.00819798 0.0222131 0.047093 -0.0682248 -0.0676831 -0.0672407
internal_weight=2.81375 1.86758 1.30907 0.946164 0.693246 0.34679
internal_count=142 67 45 75 69 49
is_linear=0
shrinkage=0.1


Tree=112
num_leaves=7
num_cat=0
split_feature=9 6 12 12 9 12
split_gain=0.58948 0.31928 0.634994 0.114316 0.0001748 2.58721e-05
threshold=3.9150000000000005 1.4000000000000001 677.50000000000011 719.00000000000011 3.3650000000000007 987.50000000000011
decision_type=2 2 2 2 2 2
left_child=3 -2 -3 4 -1 -4
right_child=1 2 5 -5 -6 -7
leaf_value=0.068292023876190863 -0.06872061096142805 0.072375601180609705 -0.069266047920216955 0.016323299795063036 0.070912045689598954 -0.067962700007154112
leaf_weight=0.53620433295145609 1.0861630537547173 0.66849568858742692 0.28355291346088052 0.66768063139170397 0.48494263552129269 0.32904029870405793
leaf_count=36 39 7 12 11 8 29
internal_value=0.0033637 -0.028836 0.00497992 0.0484984 0.0695363 -0.068566
internal_weight=4.05608 2.36725 1.28109 1.68883 1.02115 0.612593
internal_count=142 87 48 55 44 41
is_linear=0
shrinkage=0.1


Tree=113
num_leaves=7
num_cat=0
split_feature=6 10 11 6 12 9
split_gain=0.821219 0.409373 0.000233047 3.14112e-05 1.108e-05 1.03291e-05
threshold=0.95500000000000018 0.78500000000000014 2.0300000000000002 1.5800000000000003 1027.5000000000002 3.8200000000000003
decision_type=2 2 2 2 2 2
left_child=-1 -2 -3 -4 5 -5
right_child=1 2 3 4 -6 -7
leaf_value=0.059693404247496452 0.048713106272487712 -0.071038870223043005 -0.069012033281505333 -0.067353108190381511 -0.066997434743946926 -0.068201187644921488
leaf_weight=1.4099372355267408 0.37994167720898975 0.32958959788084019 0.23010451067239024 0.22784176748245955 0.18083299184218049 0.38846280379220843
leaf_count=32 13 4 7 38 29 19
internal_value=0.00299475 -0.043034 -0.0687252 -0.0679828 -0.0676857 -0.0678877
internal_weight=3.14671 1.73677 1.35683 1.02724 0.797138 0.616305
internal_count=142 110 97 93 86 57
is_linear=0
shrinkage=0.1


Tree=114
num_leaves=6
num_cat=0
split_feature=6 0 7 0 4
split_gain=0.452028 0.341924 0.00732271 3.63189e-06 4.62805e-06
threshold=2.1800000000000002 13.010000000000002 0.30500000000000005 13.010000000000002 98.500000000000014
decision_type=2 2 2 2 2
left_child=3 -2 -3 4 -1
right_child=1 2 -4 -5 -6
leaf_value=-0.067071817372066522 -0.028964789842870112 0.052767073581144942 0.07023056356632712 -0.067889281099395946 -0.067743795387681743
leaf_weight=0.17078710487112436 0.75058295996859647 0.50472950283437967 0.45797984022647142 0.41975421318784356 0.25630120187997818
leaf_count=30 21 27 18 26 20
internal_value=-0.0079128 0.021629 0.0610748 -0.0676804 -0.0674751
internal_weight=2.56013 1.71329 0.962709 0.846843 0.427088
internal_count=142 66 45 76 50
is_linear=0
shrinkage=0.1


Tree=115
num_leaves=6
num_cat=0
split_feature=9 6 12 0 12
split_gain=0.539252 0.305594 0.547041 0.000149901 0.000113859
threshold=3.4900000000000007 1.2350000000000001 719.00000000000011 13.135000000000002 702.50000000000011
decision_type=2 2 2 2 2
left_child=4 -2 -3 -4 -1
right_child=1 2 3 -5 -6
leaf_value=0.068309975996901362 -0.06852106315693518 0.043368465615050894 -0.070218398339073756 -0.067228395598324747 0.070530675498849255
leaf_weight=0.48577742232009802 0.85448601981624994 1.222981992177665 0.36094712838530529 0.31313304556533694 0.44000931829214096
leaf_count=36 35 19 7 37 8
internal_value=0.00334742 -0.018865 0.00350136 -0.0688294 0.0693654
internal_weight=3.67733 2.75155 1.89706 0.67408 0.925787
internal_count=142 98 63 44 44
is_linear=0
shrinkage=0.1


Tree=116
num_leaves=6
num_cat=0
split_feature=6 10 11 9 12
split_gain=0.720869 0.27452 0.000121945 8.97275e-06 1.29872e-05
threshold=1.4000000000000001 0.83000000000000007 2.1900000000000004 3.7200000000000006 787.50000000000011
decision_type=2 2 2 2 2
left_child=1 -1 -2 -4 -5
right_child=2 -3 3 4 -6
leaf_value=0.068846452381435913 -0.070431188074119064 -0.0098849319443303132 -0.066896867268638346 -0.068146227035231224 -0.067210796633741826
leaf_weight=1.1589336204342546 0.18798457225784648 0.71677988208830345 0.15089862560853362 0.35753847612068057 0.25375984306447208
leaf_count=34 4 14 38 14 38
internal_value=0.00281264 0.0387603 -0.0681501 -0.0675874 -0.0677579
internal_weight=2.8259 1.87571 0.950182 0.762197 0.611298
internal_count=142 48 94 90 52
is_linear=0
shrinkage=0.1


Tree=117
num_leaves=8
num_cat=0
split_feature=12 5 9 6 0 7 9
split_gain=0.406824 0.204028 0.0944771 4.72113e-05 7.59115e-06 2.15841e-06 2.47723e-08
threshold=677.50000000000011 2.4050000000000007 4.0250000000000012 3.0800000000000005 13.010000000000002 0.51000000000000012 3.1100000000000003
decision_type=2 2 2 2 2 2 2
left_child=3 -2 -3 4 5 6 -1
right_child=1 2 -4 -5 -6 -7 -8
leaf_value=-0.066860685775434955 -0.033901880311505844 0.0090728187902993137 0.069002985664121205 -0.069280416226002256 -0.067849472070945827 -0.067458333013902125 -0.066936748634673693
leaf_weight=0.094865602673963045 0.47024104883894313 0.44042368698865153 0.653149857185781 0.19618827477097511 0.28036989062093198 0.11212799418717623 0.078041490633040667
leaf_count=25 22 8 37 4 20 11 15
internal_value=-0.00800824 0.021181 0.0448668 -0.0679438 -0.06748 -0.0671166 -0.066895
internal_weight=2.32541 1.56381 1.09357 0.761593 0.565405 0.285035 0.172907
internal_count=142 67 45 75 71 51 40
is_linear=0
shrinkage=0.1


Tree=118
num_leaves=7
num_cat=0
split_feature=9 0 4 12 9 12
split_gain=0.485578 0.282656 0.15454 0.000105985 8.18291e-05 1.98451e-05
threshold=3.4900000000000007 12.755000000000001 94.500000000000014 737.50000000000011 4.5500000000000007 645.00000000000011
decision_type=2 2 2 2 2 2
left_child=3 -2 -3 -1 -4 -6
right_child=1 2 4 -5 5 -7
leaf_value=0.068185676884471733 0.024692541134402224 -0.0036124457795980915 -0.069504163523689072 0.070450234358485006 -0.068432807039158217 -0.06709721958153457
leaf_weight=0.48330905660986934 0.94463676959276233 0.58003922831267096 0.53291535843163729 0.36106627248227596 0.19636542443186045 0.2566703564953059
leaf_count=38 19 20 14 6 8 37
internal_value=0.00355366 -0.0185091 -0.0445692 0.069154 -0.0686642 -0.0676761
internal_weight=3.355 2.51063 1.56599 0.844375 0.985951 0.453036
internal_count=142 98 79 44 59 45
is_linear=0
shrinkage=0.1


Tree=119
num_leaves=6
num_cat=0
split_feature=10 8 1 6 4
split_gain=0.642254 0.178141 0.0138899 9.18769e-05 5.00792e-06
threshold=0.91500000000000015 1.3250000000000004 2.0050000000000003 1.5800000000000003 95.500000000000014
decision_type=2 2 2 2 2
left_child=1 -1 3 -2 -5
right_child=2 -3 -4 4 -6
leaf_value=0.068325227217421139 -0.069662722315736642 -0.0006126356839500453 -0.041692714202017429 -0.067670234661909814 -0.06690555603269123
leaf_weight=0.97794432519003771 0.3431991017423569 0.60781406634487212 0.26588408509269357 0.23132051108404994 0.13599599362351
leaf_count=28 8 31 20 24 31
internal_value=0.00261494 0.0419017 -0.0611901 -0.0684863 -0.0673871
internal_weight=2.56216 1.58576 0.9764 0.710516 0.367317
internal_count=142 59 83 63 55
is_linear=0
shrinkage=0.1


Tree=120
num_leaves=5
num_cat=0
split_feature=12 11 2 6
split_gain=0.374704 0.20628 0.000494169 1.48602e-05
threshold=987.50000000000011 2.8900000000000006 2.4550000000000005 1.5800000000000003
decision_type=2 2 2 2
left_child=1 2 3 -1
right_child=-2 -3 -4 -5
leaf_value=-0.067443007781679706 0.068375094983467402 0.0043647497705541867 -0.062410101906798909 -0.068432683374010775
leaf_weight=0.28469297522678993 0.48975319461897004 0.81638744194060564 0.21664894442074001 0.32482569059357047
leaf_count=33 32 38 22 17
internal_value=-0.0083947 -0.0312848 -0.0665123 -0.0679704
internal_weight=2.13231 1.64256 0.826168 0.609519
internal_count=142 110 72 50
is_linear=0
shrinkage=0.1


Tree=121
num_leaves=6
num_cat=0
split_feature=9 6 12 0 12
split_gain=0.43547 0.262063 0.449242 8.62961e-05 6.94653e-05
threshold=3.4900000000000007 1.2350000000000001 719.00000000000011 13.135000000000002 702.50000000000011
decision_type=2 2 2 2 2
left_child=4 -2 -3 -4 -1
right_child=1 2 3 -5 -6
leaf_value=0.068025124311110102 -0.068216868359614366 0.042557648619237498 -0.06963675330958552 -0.067129908637341501 0.06993212256601973
leaf_weight=0.39347802568227086 0.71904208720661733 1.0590555276721714 0.3057034658268093 0.24930974119342864 0.3712294977158308
leaf_count=36 35 19 7 37 8
internal_value=0.00346148 -0.0180035 0.00436572 -0.0685107 0.0689509
internal_weight=3.09782 2.33311 1.61407 0.555013 0.764708
internal_count=142 98 63 44 44
is_linear=0
shrinkage=0.1


Tree=122
num_leaves=7
num_cat=0
